// Auto generated data file


typedef struct conv_param {
    int pad;
    int stride;
    int kernel_size;
    int in_channels;
    int out_channels;
    float* p_weight;
    float* p_bias;
} conv_param;

typedef struct fc_param {
    int in_features;
    int out_features;
    float* p_weight;
    float* p_bias;
} fc_param;


float conv0_weight[16*3*3*3] = {0.39464307f, 0.31125212f, -0.113536164f, 0.30107704f, 0.40669382f, 0.42162737f, 0.21860032f, -0.13719831f, -0.2722659f, -0.3841937f, -0.72105736f, -0.58308995f, -0.48366326f, -0.28575644f, -0.05651677f, -0.53083885f, -0.77037054f, -0.7629983f, 0.025733506f, 0.12633972f, -0.17480506f, 0.21570784f, 0.21041252f, -0.100641824f, 0.27207935f, -0.3632402f, -0.25211236f, -0.3779639f, -0.28126734f, -0.099892944f, -0.29411986f, -0.352513f, -0.27488035f, 0.07936121f, -0.11976181f, -0.09621229f, -0.29249555f, -0.35626453f, -0.089926735f, -0.30967128f, -0.45575193f, -0.18596205f, 0.0046898457f, 0.07736333f, 0.11418518f, 0.049611814f, -0.1174234f, -0.061348002f, -0.17694806f, -0.23101062f, -0.01014731f, 0.10893406f, -0.033674054f, 0.055747885f, -0.7857677f, -0.43438435f, -0.23328306f, -0.7045561f, -1.0594592f, -0.96986556f, -0.4306335f, -0.49769416f, -0.38025817f, 0.743165f, 0.39787427f, 0.70530725f, 0.14347716f, 0.31259444f, 0.2433205f, 0.6502008f, 0.17526624f, -0.21967348f, 0.3032335f, 0.6659125f, 0.32520002f, 0.25262007f, 0.21478127f, -0.25885805f, 0.5798695f, 0.10853558f, 0.5885381f, -0.66717565f, -2.0332286f, -2.0057657f, 2.6963172f, 0.49773622f, 1.189053f, 0.8569126f, -0.5478645f, -0.5474117f, -0.38225102f, -0.10105263f, -0.7386174f, 2.0439014f, 1.4866843f, 0.50445044f, -0.5007768f, -1.8825145f, -0.70317525f, -0.8941499f, -0.75519013f, 1.0137452f, -0.21174146f, 1.5843949f, 2.470182f, -2.3377092f, -2.20756f, -0.7657903f, 0.11595148f, -0.029040033f, 0.7682127f, 0.38493067f, 1.1514106f, 1.0909537f, -1.0764828f, -1.1670347f, 0.029069614f, -0.877457f, 0.5579421f, 1.1665275f, -0.18994229f, 0.7673296f, 0.74027365f, -1.4748354f, -1.5412221f, -0.6860829f, -0.18105343f, 0.068953045f, 1.2358037f, -0.5324052f, -0.14725618f, 1.4631968f, -1.3702732f, -0.7870854f, 0.98745936f, 0.26478675f, 0.3556826f, 0.104706556f, 0.25831616f, 0.58448446f, 0.37813473f, 0.0707449f, 0.23480041f, 0.23432183f, -0.0130122695f, 0.1177902f, 0.14724356f, 0.04454773f, 0.30134895f, 0.034679458f, 0.10438265f, 0.080957696f, 0.04673539f, 0.000114658316f, 0.11621634f, -0.061609983f, 0.13820495f, 0.06610005f, 0.024520641f, 0.103318214f, 0.17039937f, -0.07025218f, -0.6798553f, -1.3538299f, -0.82105464f, 2.2388427f, 0.52264774f, -0.36318606f, -1.4912193f, 1.1072139f, 0.33895338f, -1.7142519f, 0.5416925f, -1.0977235f, 1.6462898f, 0.90318096f, 0.94332093f, -1.8965774f, 0.7349083f, -2.4249914f, -1.6165315f, 1.7934322f, 0.48784658f, -0.15854074f, 0.78907776f, 0.014245147f, -2.945607f, 0.5394235f, -0.4857813f, -0.054304346f, -0.3152643f, -0.06946454f, -0.11268508f, -0.17926472f, -0.20574911f, -0.07990353f, -0.49118677f, -0.025087593f, 0.19014266f, -0.18238616f, -0.059863616f, 0.2252154f, -0.17008233f, 0.26245677f, 0.29177034f, -0.2754409f, 0.30317858f, -0.026542168f, -0.56722933f, -0.11456274f, -0.067640044f, -0.10235165f, -0.12649953f, -0.36027682f, -0.49318066f, -0.20856257f, -0.10553966f, 0.14529943f, 0.31293455f, -0.6343524f, -0.41135284f, -0.22918832f, -0.3269688f, -0.4666978f, -0.14151694f, 0.047637857f, 0.3689984f, 0.54759896f, -0.7058803f, -0.5644361f, 0.13388251f, -0.34838295f, -0.7413975f, -0.38709667f, 0.25354767f, -0.007902776f, 0.33674595f, -0.0746156f, -0.27811626f, -0.110156484f, -0.2025166f, -0.2381966f, -0.021202441f, 0.8231694f, -0.6653018f, -1.2321107f, 0.8115323f, -0.122332565f, -1.0530983f, 0.45618296f, 0.102331914f, 0.033566006f, 0.85834605f, -0.29432422f, -1.2657924f, 0.9141286f, -0.3266094f, -0.7053741f, 0.81276864f, 0.07665286f, -0.5127557f, 0.14322002f, -0.7193492f, -0.338985f, 0.97604406f, -0.105564944f, -0.19280234f, 0.526181f, 0.3487025f, -0.12819663f, -0.15909345f, -0.10290787f, -0.5248588f, 0.48928633f, 1.0575275f, 0.14167315f, 0.83029175f, 1.1101023f, 0.5940608f, -0.01074784f, -0.723216f, -0.7768869f, 0.98885226f, 0.54384017f, -0.703233f, 0.63482726f, -0.07262965f, -0.61900723f, 0.4230914f, -0.51311386f, -0.7291202f, 0.27294713f, 0.10586888f, -0.5550978f, 0.22313671f, 0.7238348f, -0.4494153f, 0.29698962f, 0.56095773f, 0.31671995f, 0.17024502f, 0.38235816f, 0.25565818f, -0.1672302f, 0.3076467f, -0.01307815f, 0.14418042f, 0.56610113f, 0.2148333f, 0.15399817f, 0.67229635f, 0.13392828f, 0.20211038f, 0.31115752f, 0.0095776105f, -0.19347395f, 0.015239959f, -0.07266435f, -0.21352863f, -0.048559375f, -0.19423409f, -0.29441926f, -0.21786705f, -0.13871895f, 0.13560575f, -0.2710085f, -0.7794796f, -0.62922764f, -0.96720576f, -1.7171217f, -0.86367893f, -1.268142f, -0.39895812f, 0.55501527f, 0.5426243f, 1.0501138f, 1.3332919f, 1.0797073f, 0.6276182f, 1.3336443f, 0.89330786f, 0.79221326f, -0.031759303f, 0.6283158f, -0.8274064f, -0.26828262f, 0.5890328f, -0.6915631f, 0.29678676f, 0.12777342f, -0.4851606f, -0.21372864f, -0.30243278f, -0.057936516f, -0.22304212f, -0.5086857f, -0.36543858f, 0.061323658f, -0.058094397f, -0.2603215f, -0.04734044f, -0.12903345f, 0.1044603f, -0.17583425f, -0.2569909f, -0.29177812f, 0.011159535f, -0.11316811f, -0.15704016f, -0.112502016f, 0.076443285f, 0.08122089f, -0.00030651398f, -0.19409938f, -0.18510209f, 0.097724915f, -0.13614564f, -0.11792337f, 0.6576927f, -1.0175071f, -0.65340555f, -0.5979028f, 1.1775038f, 0.5222899f, -0.8214336f, 1.736255f, -0.8586219f, -0.79329425f, 0.17091788f, -0.011192297f, -1.8893261f, -0.5987776f, -0.99274975f, -0.58744484f, 1.0230196f, -1.8118623f, 1.0436924f, 0.34172526f, 0.7626623f, 0.16033667f, 0.20234789f, -0.21112663f, -0.40952432f, 2.2407742f, -1.4594872f, -3.1228063f, -3.9376194f, 2.432453f, 1.2279854f, -0.13547976f, -3.1744912f, 1.8420978f, -2.0824459f, 4.346323f, -0.10367142f, -3.9673567f, 2.7665029f, 4.8321104f, 0.17018299f, 0.5056449f, -1.5576425f, -2.362877f, 4.7744937f, 0.57975817f, -2.178875f, 3.423763f, 5.2192326f, 2.6792204f, -4.330439f, -2.3420188f, -6.791226f, 0.863587};
float conv0_bias[16] = {0.5312736f, 2.0255265f, 0.5032426f, 1.0871441f, -0.16811907f, -1.4195297f, 1.3647283f, 1.4160137f, 2.0942433f, 0.37322155f, -0.98419213f, -1.6288463f, 0.11098604f, 1.7342286f, 0.8017651f, 0.11197768};

float conv1_weight[32*16*3*3] = {0.014125248f, 0.02011669f, 0.0045715445f, 0.04060846f, -0.0028727339f, -0.0051887906f, -0.0021336132f, 0.017233144f, 0.019087555f, -0.050847527f, -0.036057323f, -0.0474122f, -0.03970468f, -0.057623364f, -0.023586567f, -0.056559544f, -0.015139501f, -0.035067342f, 0.035408456f, 0.016424006f, 0.028921401f, 0.034245424f, 0.037314687f, -0.00438508f, 0.021399492f, 0.010438159f, -0.0007815449f, -0.034098484f, -0.007026171f, 0.032585986f, 0.05825255f, 0.013727081f, 0.07811452f, 0.01124295f, 0.021197375f, -0.0015449037f, -0.0013319806f, -0.008390102f, -0.017952355f, -0.0023986371f, -0.0050387303f, 0.06115652f, 0.00823463f, -0.04006314f, 0.016569383f, 0.052072126f, -0.0019818866f, 0.026132092f, 0.02867473f, 0.007973486f, 0.062428784f, 0.015201683f, -0.0019699773f, 0.019259062f, 0.005896697f, 0.0035950614f, 0.02319124f, 0.0452346f, 0.002449538f, 0.04406255f, 0.04981729f, 0.052721806f, 0.038780723f, -0.005027108f, 0.02685495f, 0.03040057f, 0.0391252f, -0.018487908f, 0.044216696f, 0.010911246f, -0.013053186f, 0.022384612f, -0.087844744f, -0.018411404f, -0.019791473f, -0.073141314f, -0.032482456f, -0.04522565f, -0.033846974f, -0.045551565f, -0.0016718251f, -0.0049911127f, -0.03445318f, 0.008672465f, -0.018223213f, -0.02042446f, -0.004876857f, 0.06469478f, -0.018232081f, 0.0144121405f, -0.00037349598f, 0.04014398f, 0.020879557f, 0.048954535f, 0.049837742f, 0.070625f, 0.047983874f, -0.0110023f, 0.030104399f, 0.038402166f, 0.010721614f, 0.039257772f, 0.045628298f, 0.048027314f, 0.07042415f, 0.028564949f, 0.034244537f, 0.017332964f, 0.028848995f, 0.00462516f, 0.045134764f, 0.03252499f, 0.03574412f, 0.059356324f, 0.06291903f, 0.018422052f, 0.023654588f, -0.051211495f, -0.04428374f, -0.01636019f, -0.06823624f, -0.027714513f, -0.034291353f, -0.025394281f, -0.004618259f, -0.032069903f, 0.011104218f, -0.02635356f, 0.009131064f, -0.013256146f, -0.0060902066f, 0.034868386f, -0.0002852273f, 0.0040159603f, -0.004564797f, -0.047324132f, -0.023962462f, 0.026137087f, 0.051210742f, 0.024852907f, 0.06375664f, 0.044772327f, -0.041245874f, 0.028111624f, 0.015253411f, 0.026545225f, -0.08274737f, -0.074680224f, -0.010917103f, -0.008953084f, -0.12511635f, -0.053736676f, -0.031518374f, 0.03455151f, 0.21167342f, 0.060543872f, -0.046763882f, 0.16498752f, 0.15159644f, -0.16125081f, 0.0060472656f, 0.125927f, -0.08319646f, -0.021254519f, 0.06058255f, -0.099235214f, -0.04911397f, 0.018714586f, -0.09558144f, -0.072429664f, 0.023992715f, -0.007939357f, -0.12063019f, -0.16489992f, 0.014591068f, -0.11732934f, -0.18235694f, -0.032383732f, -0.11013844f, -0.1375559f, -0.04727904f, 0.17402138f, 0.26712856f, -0.028024355f, 0.021619577f, 0.1812035f, 0.018803462f, 0.04771608f, 0.06890072f, 0.036188934f, -0.17731284f, 0.051151965f, 0.1519915f, -0.13831817f, -0.11978731f, 0.2106041f, 0.00462742f, -0.09450281f, -0.013326147f, -0.03574589f, -0.06175537f, -0.12081138f, -0.0859599f, -0.09429288f, -0.09505276f, -0.15294029f, -0.07188203f, -0.0066667725f, -0.021395031f, 0.009661893f, -0.018800395f, -0.02461362f, -0.012288863f, -0.029849278f, -0.03699604f, -0.009184922f, 0.0060506705f, 0.22485133f, 0.052589826f, -0.12472782f, 0.102051996f, 0.13418278f, -0.21064802f, -0.025355697f, 0.06517182f, 0.09981221f, 0.13040014f, -0.012923718f, 0.08306546f, 0.28628814f, 0.120045744f, -0.052516982f, 0.092872456f, 0.124382295f, 0.10239299f, -0.22453439f, -0.03500422f, 0.18508445f, -0.05593278f, -0.123204954f, 0.20199533f, 0.028091053f, -0.112577416f, -0.035306547f, -0.23756664f, -0.045920223f, 0.03301163f, -0.17477708f, -0.14416474f, 0.13095346f, -0.07892382f, -0.15437244f, 0.008724582f, -0.063123666f, 0.08656124f, 0.047250714f, -0.021903718f, -0.006356725f, 0.03625579f, 0.0042241663f, -0.0035029536f, 0.017216401f, 0.20514575f, 0.038903993f, -0.067970864f, 0.119485684f, 0.13879508f, -0.12752385f, 0.011380805f, 0.05480924f, -0.03858474f, -0.00046294296f, -0.07161286f, -0.08865503f, -0.0018964176f, -0.019543221f, -0.13756199f, -0.032048848f, -0.05913124f, -0.0101326f, -0.0015753054f, 0.027494822f, 0.0014196017f, 0.0044595306f, 0.0012213995f, -0.038983308f, -0.049142092f, 0.04794849f, 0.0009651372f, -0.002637324f, 0.011883203f, 0.002563157f, 0.019058762f, 0.030600691f, 0.014115883f, 0.032696083f, 0.043301374f, 8.318255e-05f, 0.027780557f, 0.015090973f, -0.01972309f, -0.001173348f, -0.010289963f, -0.029546442f, 0.0028431343f, 0.022420688f, 0.015909696f, -0.0041557234f, 0.017329317f, 0.022179246f, -0.006993201f, -0.010310398f, -0.00123551f, 0.021966962f, 0.006622839f, 0.069876656f, 0.04527835f, 0.07949403f, 0.06090086f, 0.027644373f, 0.032443225f, 0.05238901f, 0.031170253f, 0.0509662f, -0.016589602f, 0.013168334f, -0.0056770546f, 0.034721322f, 0.0063995635f, 0.0034566934f, 0.026242092f, -0.010821046f, 0.049934756f, 0.001989844f, -0.023880387f, -0.013836202f, 0.008899786f, 0.01562885f, 0.010918571f, -0.031115342f, 0.0023456651f, -0.010096847f, 0.052210435f, 0.027478084f, 0.0358251f, 0.0511717f, 0.0468986f, 0.027749758f, 0.017511345f, 0.044061992f, 0.037847824f, 0.06308244f, 0.02315965f, 0.012050436f, 0.023294382f, 0.023284264f, 0.038453303f, 0.05443062f, 0.030910557f, 0.021595314f, -0.007425822f, -0.0016078671f, 0.0025320612f, -0.04226839f, 0.0030872729f, 0.012502826f, 0.0072079585f, -0.01261794f, 0.019275164f, 0.06885986f, 0.011376271f, 0.064169586f, 0.0095228795f, 0.0011001187f, 0.01636024f, 0.05098465f, 0.0034864345f, 0.047419805f, 0.010074589f, 0.008863873f, -0.005056209f, 0.010233964f, 0.02171337f, -0.014566464f, -0.008240393f, -0.03583871f, -0.010112417f, 0.0004198168f, 0.011100249f, -0.005054376f, -0.019727575f, 0.010587928f, -0.025497468f, 0.0046942662f, -0.0029203678f, -0.004570243f, -0.036247827f, -0.021469899f, -0.041306995f, 0.021415163f, -0.022150273f, -0.0370679f, 0.009897294f, -0.031268638f, -0.016731208f, 0.02270379f, 0.0044755414f, 0.031421516f, -0.029350527f, -0.0027889558f, 0.0061243298f, 0.00932064f, -0.006046284f, 0.020961367f, 0.02178064f, 0.022325892f, 0.0012179662f, -0.037456512f, 0.016718522f, 0.013440761f, 0.04041118f, 0.03733975f, 0.030419562f, 0.060966413f, 0.07450549f, 0.050234914f, 0.07075591f, 0.014681637f, 0.072940014f, 0.0012711012f, -0.06835999f, 0.06684235f, 0.0026866319f, 0.007616575f, -0.011647566f, 0.014003383f, -0.035295863f, 0.002978575f, -0.0012869523f, -0.0078805415f, 0.01783392f, -0.07207559f, -0.048050113f, -0.065096654f, -0.06867883f, -0.06361245f, -0.058711533f, -0.054465104f, -0.026701357f, -0.026534671f, 0.012088573f, -0.015934138f, -0.030870456f, -0.03879173f, -0.032883026f, -0.055212755f, -0.0025475356f, -0.015456707f, 0.035257325f, -0.019688852f, 0.02979608f, 0.028460104f, 0.02314902f, 0.075917855f, 0.09069404f, -0.038456738f, -0.08827853f, -0.06923629f, -0.057367545f, 0.01038085f, 0.10748697f, 0.043677345f, 0.064662084f, 0.11071822f, -0.008692642f, -0.058254164f, -0.051143926f, 0.021604793f, 0.012816572f, -0.0017434213f, -0.03590835f, -0.012899126f, -0.0072575817f, -0.053933013f, -0.044396807f, -0.04766038f, 0.1200502f, 0.05184235f, 0.09962108f, 0.102992915f, 0.055423856f, 0.10812152f, 0.07321805f, 0.03081598f, 0.01828473f, -0.02366985f, 0.05840003f, -0.022050912f, 0.0044102264f, 0.104057424f, -0.018393802f, -0.016131427f, 0.006524725f, 0.016732832f, -0.061409723f, -0.08326538f, -0.034994863f, -0.078927f, -0.06631797f, -0.06550441f, -0.017424056f, -0.0598076f, -0.037405767f, -0.014945922f, 0.0113092875f, 0.009300066f, -0.04156107f, -0.042164393f, -0.006075931f, 0.009762053f, -0.03180444f, 0.00014387305f, 0.019476162f, -0.0075921253f, 0.009099958f, 0.009037114f, 0.014816223f, 0.0026243897f, -0.042678278f, -0.02075295f, -0.02588497f, 0.009092025f, 0.038667627f, 0.005821046f, 0.009612776f, 0.03739686f, 0.0029781887f, -0.00021139551f, -0.039126936f, 0.014384236f, -0.021736303f, -0.02889446f, 0.0033345744f, 0.023117825f, -0.013924731f, -0.0053566243f, 0.022635462f, 0.005264483f, -0.03572943f, -0.027383814f, -0.04792765f, -0.033467304f, -0.08080321f, -0.0646017f, -0.06041844f, -0.048238203f, -0.050220627f, -0.022124147f, 0.0051916824f, 0.006584962f, -0.021767782f, -0.011446081f, 0.01882262f, -0.01299332f, 0.0030890056f, 0.018202072f, -0.004934282f, -0.032871585f, 0.06366763f, -0.016718589f, -0.02249574f, 0.34137696f, 0.20208173f, -0.040264945f, 0.08010729f, 0.045016624f, -0.006159633f, -0.015495915f, -0.02915024f, -0.0029963504f, -0.024540272f, -0.054798987f, -0.009961343f, -0.03519944f, -0.048945185f, -0.0047740396f, -0.02102925f, 0.0025079204f, -0.00891678f, -0.025403522f, -0.0031043629f, 0.019027047f, -0.0029102608f, -0.0067213452f, 0.008691971f, -0.02031007f, -0.04849098f, -0.015706316f, -0.049552027f, -0.036185414f, -0.009110461f, -0.026671112f, -0.016385878f, -0.010433546f, 0.00014343031f, 0.013638414f, -0.0071144695f, -0.0025728655f, -0.002666923f, -0.0100076925f, -0.00020986369f, -0.008781097f, -0.02839022f, -0.039115578f, -0.026804127f, -0.026105966f, -0.042063255f, -0.05479556f, 0.040555645f, 0.002886485f, -0.008486121f, 0.055080514f, 0.047427345f, 0.0063539706f, 0.064771526f, 0.06547859f, 0.03672543f, 0.029186435f, 0.035604723f, 0.026737267f, 0.0131502f, -0.0051195975f, -0.009927112f, -0.019463371f, -0.016168337f, -0.024909016f, -0.012331441f, -0.012114684f, -0.005994488f, -0.0021838f, -0.017063478f, -0.02621687f, 0.002133298f, -0.006176066f, -0.013459342f, -0.002965413f, 0.0044426396f, -0.0077449786f, -0.010644454f, -0.010087688f, 0.010094839f, -0.006276892f, -0.04673869f, -0.018304154f, 0.026855338f, -0.0047932337f, 0.017266618f, 0.0010646192f, -0.005462929f, -0.018872011f, -0.046046168f, -0.03693878f, -0.0391345f, 0.011648876f, -0.015128415f, -0.034650292f, 0.027246758f, 0.036310524f, 0.016515773f, 0.028804975f, 0.042811487f, 0.034101382f, 0.015895015f, 0.023083275f, 0.008645101f, 0.02428278f, -0.002094274f, -0.019435378f, 0.032628596f, 0.013094297f, -0.012096168f, -0.012416899f, -0.014868241f, 0.0011711719f, -0.04030001f, -0.027203742f, -0.026008861f, -0.0047772317f, -0.010823114f, -0.024525348f, -0.015753295f, -0.03151514f, -0.020192042f, -0.012118214f, -0.0053264676f, -0.0025475607f, -0.03468845f, -0.030174747f, -0.039665144f, 0.0038372558f, -0.018532906f, -0.00479735f, -0.023638304f, -0.00644051f, -0.01115271f, -0.013376127f, -0.025982147f, -0.012644796f, -0.011618949f, -0.013616335f, -0.016360568f, -0.0099102305f, -0.011859342f, -0.03943827f, -0.039006773f, -0.041398026f, -0.04674905f, -0.031684633f, -0.05278899f, -0.05099096f, 0.033064023f, -0.029915031f, -0.0206671f, 0.0049834135f, 0.009635478f, -0.0146983825f, 0.0021425614f, -0.0001459136f, 0.04948327f, -0.04039265f, -0.04808888f, -0.041974507f, -0.042574257f, -0.048071597f, -0.014984771f, -0.04500971f, -0.0939243f, 0.0010392506f, -0.01595026f, -0.009534432f, -0.032400753f, -0.070161246f, -0.04189296f, -0.06717756f, -0.029670592f, 0.01427058f, 0.050291196f, 0.13378224f, -0.10923916f, 0.07666793f, 0.13373318f, -0.032206405f, 0.047997683f, -0.09889689f, -0.17710191f, -0.14338665f, 0.05883516f, -0.114319235f, 0.07618672f, 0.05573734f, -0.10756956f, 0.0013396556f, -0.120109245f, -0.21723248f, -0.08546098f, -0.08769601f, -0.031038972f, -0.019289935f, -0.049270708f, -0.026000557f, -0.019079149f, -0.047314458f, -0.05783854f, -0.0015615497f, 0.11855278f, 0.042745393f, 0.076520465f, 0.1622469f, 0.08644111f, 0.17179479f, 0.06494823f, -0.05219075f, 0.035075244f, 0.1617232f, -0.060976274f, 0.1749027f, 0.1526193f, -0.040842503f, 0.08890403f, -0.011428061f, -0.058289904f, -0.019042837f, -0.021887148f, -0.03716216f, -0.0017771637f, -0.03897083f, -0.048633438f, -0.04957285f, -0.027007932f, -0.04268626f, 0.0340374f, 0.08099041f, -0.08114599f, 0.063764125f, 0.081889324f, -0.120778345f, 0.12019826f, 0.001380004f, -0.094882995f, -0.007135923f, -0.0122512905f, -0.10785212f, -0.022819554f, 0.0035290013f, -0.035509225f, 0.018765762f, 0.0016628773f, -0.073619604f, -0.019555328f, -0.06311736f, 0.019624103f, -0.049590148f, -0.024535505f, -0.030308083f, -0.04980435f, -0.012389482f, -0.072191186f, -0.009453051f, -0.030120248f, -0.036210377f, 0.03713928f, 0.03501498f, -0.026665263f, 0.009803477f, 0.011207234f, 0.02239622f, 0.046940625f, -0.06583688f, -0.027575335f, -0.025566794f, -0.04718374f, -0.022654766f, -0.08627003f, -0.05913401f, -0.018461933f, -0.02302853f, 0.028055908f, 0.03327861f, 0.09337644f, 0.095223196f, 0.025336238f, 0.010041548f, 0.12641664f, 0.098160855f, 0.13814315f, 0.3158341f, -0.13518634f, 0.3935221f, 0.35168123f, -0.313993f, 0.18457678f, -0.2106849f, -0.1303756f, -0.02617982f, -0.057662208f, -0.061903875f, 0.0147926295f, -0.001417657f, -0.010317153f, 0.055847626f, -0.031324033f, -0.03026136f, 0.06619213f, -0.09097963f, -0.07835136f, -0.017532999f, -0.053156346f, -0.022700978f, -0.088348255f, -0.032722145f, -0.07756208f, -0.07203881f, -0.0059217946f, -0.059302635f, -0.02969479f, -0.07765823f, -0.060820654f, -0.07270349f, -0.073487595f, -0.011581575f, -0.05681515f, -0.004081702f, -0.035099193f, 0.045190938f, 0.12203471f, 0.050935768f, 0.18708114f, -0.037824765f, -0.117888525f, -0.0038648183f, -0.031012613f, -0.017360581f, 0.021691088f, 0.053681478f, 0.0047270353f, 0.09863914f, -0.027774306f, -0.0670003f, -0.0055641313f, -0.065704025f, -0.06931376f, -0.059371248f, -0.05817431f, -0.05379514f, -0.05120555f, -0.05893473f, -0.049114246f, 0.0019561697f, 0.06977933f, 0.004531597f, 0.11770598f, 0.14245103f, 0.086591735f, 0.21408756f, 0.046918f, -0.0821254f, -0.006626782f, -0.064343505f, -0.087228216f, -0.11817987f, -0.062038112f, -0.12040682f, 0.038870174f, -0.0517222f, -0.09656634f, -0.011945017f, -0.02548263f, -0.04909491f, -0.02343953f, -0.05825485f, -0.11683507f, -0.09742989f, -0.032909364f, -0.056715365f, -0.03424579f, -0.06934945f, -0.0740149f, 0.0026010422f, -0.11048176f, -0.0773665f, 0.036269367f, -0.08578479f, -0.068075925f, 0.061582763f, -0.07077827f, -0.03899702f, -0.04192339f, -0.009638312f, -0.0052259536f, 0.06504437f, -0.06288333f, -0.1064825f, 0.021941138f, -0.028099814f, -0.048797194f, 0.023550002f, -0.0886266f, -0.047753047f, -0.025439784f, -0.018213911f, -0.03423854f, -0.0071385987f, 0.025322806f, 0.05982162f, 0.07387447f, 0.053674042f, 0.058749832f, 0.02364644f, 0.06902191f, 0.028702617f, 0.03993657f, -0.05537636f, -0.057839796f, 0.00054042175f, -0.038251087f, -0.078320004f, -0.051295634f, -0.07812029f, -0.06841534f, -0.029505644f, -0.040048588f, -0.03977412f, 0.06254341f, -0.024664652f, 0.0046801195f, 0.0022724757f, 0.046710297f, 0.0013846228f, -0.017811615f, -0.048943456f, -0.032024674f, -0.07383382f, 0.07590087f, -0.117858894f, 0.14526425f, -0.06977623f, -0.12755066f, 0.0015090866f, -0.017834507f, -0.019205512f, -0.03223386f, -0.021451943f, -0.05985507f, -0.062640876f, -0.038825795f, -0.058107205f, -0.05169534f, 0.0537118f, 0.03446607f, 0.021188755f, 0.012755678f, -0.056189343f, -0.05131891f, 0.014083227f, -0.019543407f, -0.02819427f, -0.05620049f, -0.12113895f, -0.09659379f, -0.07228816f, -0.09039624f, -0.0754186f, -0.063912064f, -0.047289513f, -0.044459887f, -0.023534177f, 0.0031969554f, -0.0048569413f, -0.01983498f, -0.014143015f, 0.020474065f, -0.011061322f, -0.0018192919f, 0.0018152938f, 0.0007713295f, -0.03249884f, -0.039532907f, -0.012324465f, -0.033320367f, -0.071462646f, 0.035415158f, 0.035012662f, -0.026339227f, 0.0129687395f, 0.025302326f, 0.04937779f, 0.012644299f, 0.070955634f, 0.079493456f, 0.022248773f, 0.06835429f, 0.08724844f, -0.0064268173f, -0.019173326f, -0.0015811323f, -0.029057939f, -0.060206916f, -0.04314473f, -0.019028276f, -0.053273812f, -0.047530964f, -0.018872192f, -0.018759806f, -0.032723296f, -0.040151455f, -0.020304352f, -0.017512329f, -0.027532939f, 0.0052096345f, 0.008637604f, 0.047157593f, 0.010378136f, 0.018867286f, 0.012558432f, -0.05620928f, -0.06112157f, 0.047062833f, 0.0073020654f, -0.037385795f, 0.0054565906f, -0.0029075008f, -0.027383162f, 0.0015988754f, -0.01695304f, -0.026864698f, -0.009848268f, -0.013625228f, -0.015904078f, 0.02236602f, 0.042484917f, 0.012865269f, -0.017459424f, 0.03250595f, 0.06955578f, -0.0047257245f, 0.030761538f, 0.031614196f, -0.02303258f, -0.005164729f, 0.012235217f, -0.004632935f, 0.057545725f, 0.07120321f, -0.010148232f, 0.057828117f, 0.06456791f, -0.07509054f, -0.078138955f, -0.07067239f, -0.04231019f, -0.026123516f, -0.0015497945f, -0.05004437f, 0.0022744527f, -0.026719818f, 0.04615604f, -0.01503839f, 0.021232221f, 0.018428622f, -0.025301917f, -0.06274437f, 0.039044987f, -0.031908557f, -0.022275154f, 0.011606989f, -0.01651101f, 0.011302044f, -0.017947515f, -0.06778639f, -0.05802372f, -0.0076002222f, -0.014868092f, -0.032929547f, -0.037188306f, -0.035072457f, -0.04365028f, -0.039903548f, -0.051698215f, -0.072952986f, -0.03279872f, -0.051092267f, -0.048012234f, -0.047424074f, -0.05860808f, -0.051389076f, -0.0808276f, -0.12190105f, -0.08485694f, -0.0027886669f, -0.06677051f, -0.079945415f, -0.050958913f, 0.022454198f, 0.124532804f, -0.04526539f, -0.08716217f, -0.02236642f, 0.24938177f, 0.14178553f, 0.008417592f, -0.05666143f, -0.05871242f, -0.07756922f, -0.021216083f, -0.062176067f, -0.063481934f, -0.041189674f, -0.026708154f, -0.039581053f, -0.014825039f, 0.054523982f, 0.018907871f, -0.0060071507f, 0.0382126f, 0.04204657f, -0.02867721f, -0.03820921f, -0.040100776f, -0.046096444f, -0.08192342f, 0.019677f, 0.073477715f, 0.031248074f, -0.04205188f, 0.07612663f, 0.16223627f, 0.09466484f, 0.12562715f, 0.12410716f, 0.027010055f, 0.102206f, 0.19839591f, 0.12993506f, -0.043296654f, -0.0242775f, 0.06870859f, -0.04321859f, -0.012436382f, -0.016241604f, -0.061887816f, -0.0539074f, -0.03236688f, -0.03304699f, 0.0057737343f, -0.00817524f, -0.075932525f, -0.022129158f, -0.024464272f, -0.038714387f, -0.051005706f, -0.012441986f, -0.07027441f, -0.042624597f, -0.006963255f, -0.06467332f, -0.008616646f, 0.09284493f, 0.021807881f, -0.105744f, -0.076175794f, 0.23135315f, 0.2000648f, 0.042234067f, 0.01769212f, 0.04680096f, 0.018187849f, -0.049665168f, -0.020543283f, -0.067685746f, 0.07336252f, 0.018630821f, -0.10660223f, 0.110690355f, 0.157778f, 0.025762565f, 0.036814597f, 0.065294504f, 0.039661583f, -0.06807379f, -0.11385454f, -0.031119457f, 0.058951065f, 0.032083828f, -0.035014763f, 0.05264535f, 0.09516881f, 0.047477055f, -0.058608852f, -0.032567162f, 0.052659098f, -0.027251434f, -0.057665333f, -0.10154038f, -0.035762932f, -0.0502205f, -0.015293529f, -0.05340477f, -0.04371852f, 0.0017092018f, -0.096105196f, -0.0064352835f, 0.10393168f, -0.052829992f, -0.09510966f, -0.04217613f, 0.17971744f, 0.10541234f, -0.01331648f, -0.086524576f, -0.036593087f, 0.022677964f, -0.03910947f, -0.07648808f, -0.019456856f, 0.0613111f, -0.0015404345f, -0.024806727f, -0.029905869f, -0.07939314f, -0.0404675f, -0.045695066f, -0.054098524f, -0.039873555f, -0.03981298f, -0.03922279f, -0.036222972f, 0.03056626f, -0.0025673048f, 0.01808043f, 0.04463036f, 0.012045276f, 0.012429936f, 0.009197224f, -0.008914679f, 0.045192994f, 0.024020832f, 0.011258487f, 0.021825451f, 0.051066868f, -0.030821187f, -0.04626908f, 0.04002148f, -0.011716116f, -0.05165188f, 0.030023083f, -0.03626009f, -0.05175095f, -0.009900104f, -0.002113248f, 0.018123899f, 0.053103656f, 0.05988467f, 0.030110702f, 0.008569706f, -0.04063558f, -0.0022532637f, -0.002792018f, 0.027291957f, 0.01885089f, -0.059104655f, -0.064820655f, -0.011223214f, 0.077925645f, 0.08421734f, -0.10844681f, 0.009726319f, 0.19515754f, -0.11351379f, 0.03289861f, 0.17427583f, -0.062243953f, -0.117003664f, 0.016685817f, 0.082664475f, -0.14365914f, 0.0882101f, 0.10175789f, -0.09357928f, 0.046027068f, 0.17856334f, -0.0526417f, -0.078270264f, -0.013498279f, -0.0099994745f, -0.0039701634f, -9.5283e-05f, -0.05825151f, -0.07465106f, -0.048376635f, 0.0124691f, 0.027479634f, -0.020379083f, 0.034806672f, 0.023234978f, 0.07029584f, 0.060344774f, 0.0048070736f, 0.059192695f, 0.019191453f, -0.0071654273f, -0.021281421f, 0.047590572f, -0.0075001004f, -0.05878232f, 0.060316667f, -0.046876352f, -0.050191797f, 0.026200265f, -0.03088913f, -0.0031278771f, -0.003292739f, 0.01134904f, 0.016261734f, 0.04526495f, -0.0047179013f, 0.037760273f, -0.005056152f, 0.038194913f, 0.11922885f, -0.049047705f, 0.08118518f, 0.16073616f, -0.05844987f, 0.07746161f, 0.18305342f, -0.06944081f, 0.06950534f, 0.106079526f, -0.10575153f, 0.09074685f, 0.16710082f, -0.057237074f, 0.09307507f, 0.15784745f, 0.04091362f, 0.05480682f, 0.071631186f, -0.01318048f, 0.08302624f, 0.07992843f, 0.0016576084f, 0.051183715f, 0.15221922f, 0.037930693f, -0.033946276f, 0.019298384f, 0.029632552f, -0.05217097f, -0.046570797f, 0.055939645f, -0.021285534f, -0.028067684f, -0.004351737f, -0.046031114f, -0.056843776f, -0.020276405f, -0.09673886f, -0.029311014f, -0.06463654f, -0.04575831f, -0.06714546f, -0.006926247f, 0.06296685f, -0.02550667f, -0.013834648f, 0.06263099f, -0.05500149f, -0.0062368987f, 0.026019493f, -0.049076688f, -0.014951187f, -0.025565995f, -0.018700657f, 0.004162414f, 0.0011095292f, -0.021274822f, 0.024035664f, 0.018364936f, 0.020691944f, -0.020129489f, -0.030552858f, -0.030371506f, 0.003287016f, 0.01231259f, -0.003287165f, 0.021279182f, -0.00325092f, 0.005683369f, -0.020515956f, -0.046710685f, -0.037644323f, -0.042847846f, -0.011054181f, -0.009446173f, -0.009981419f, -0.012996057f, -0.02677905f, 0.011978866f, -0.005607669f, 0.017950168f, 0.038341f, 0.026833639f, 0.044972673f, 0.046315167f, 0.0021750215f, -0.0011881988f, 0.0018297061f, -0.02246514f, -0.015028316f, 0.035502266f, 0.037694767f, 0.01238024f, 0.009892485f, 0.0016713943f, -0.016378134f, -0.023557784f, -0.01718774f, -0.043214858f, -0.06735793f, -0.056163106f, -0.040966935f, -0.02393259f, -0.061403457f, -0.030263029f, -0.017186105f, -0.0046632704f, -0.02850054f, 0.034121778f, 0.028566731f, -0.0010298224f, 0.017686429f, 0.020754384f, 0.004010945f, 0.03860479f, -0.0103426995f, 0.018044675f, 0.017716777f, 0.011809417f, 0.0028927599f, 0.036322087f, 0.01559187f, 0.006944342f, -0.032824248f, -0.041560613f, 0.0032465458f, -0.0044604777f, 0.011132895f, -0.020866208f, 0.029303275f, -0.007533954f, 0.007979924f, 0.0032653506f, -0.008406028f, 0.0015198402f, -0.02560937f, -0.012400804f, 0.023956472f, 0.0048012044f, -0.011123032f, 0.009484343f, -0.046901874f, -0.051696494f, -0.053708963f, -0.053082615f, -0.071880825f, -0.039434616f, -0.026124466f, -0.044428125f, -0.052659873f, -0.051449653f, -0.04384728f, -0.016938588f, -0.06517131f, -0.056874994f, -0.03554308f, -0.03157528f, -0.025288003f, -0.026191367f, -0.05176593f, -0.061089743f, -0.020483468f, -0.052831095f, -0.044536408f, -0.025311055f, -0.047603156f, -0.029854557f, -0.04074045f, 0.0080309f, -0.023100602f, -0.020509126f, 0.008503109f, -0.009452087f, -0.020541823f, 0.03169574f, 0.01764954f, 0.009305987f, -0.06963832f, -0.017464904f, -0.057851672f, -0.02958102f, -0.033413578f, -0.03311073f, 0.0062624253f, 0.010890539f, -0.02173663f, 0.014044633f, -0.054203298f, -0.02005405f, 0.04519255f, 0.015997622f, 0.028509535f, 0.05123586f, 0.009012142f, -0.0029423058f, -0.05840385f, -0.01120132f, -0.0015802133f, -0.02718856f, 0.009863025f, 0.0419309f, -0.046808604f, 0.046250895f, 0.038278334f, -0.03802624f, -0.036096238f, -0.031004213f, -0.0055095875f, -0.05849809f, -0.032844126f, 0.03246036f, 0.038324587f, -0.015053449f, -0.02872662f, -0.02921427f, 0.0077498564f, -0.035635766f, -0.02294525f, -0.025247877f, -0.0012320838f, -0.040869676f, 0.005525898f, -0.18663275f, -0.18096715f, -0.12087612f, -0.13694145f, 0.11648409f, -0.06455649f, 0.02176718f, 0.24187504f, 0.20546818f, -0.080251105f, -0.13859975f, -0.05088751f, -0.0695156f, 0.0030695966f, -0.109448135f, 0.015130632f, 0.0534024f, 0.044457246f, -0.06907988f, -0.03647267f, -0.025362631f, -0.005908991f, 0.008299531f, -0.010628761f, -0.051799316f, -0.0015481522f, -0.006961306f, -0.07571305f, 0.017224623f, -0.061175745f, 0.056141622f, 0.18704574f, -0.006173563f, 0.11394659f, 0.26575375f, 0.23098356f, -0.014116598f, -0.06369241f, -0.04103791f, -0.03220181f, 0.010605358f, 0.03839897f, 0.014282024f, 0.028635023f, 0.076981485f, -0.054083697f, -0.055299234f, -0.030564353f, -0.010884446f, 0.012426099f, 0.033950593f, 0.030283108f, -0.0052479184f, 0.033323046f, -0.021666301f, -0.057029434f, -0.0060506053f, -0.11596377f, -0.030020677f, 0.03152946f, -0.046907358f, 0.03338001f, 0.092204385f, -0.09934921f, -0.030724127f, -0.020471742f, -0.1313284f, 0.007164484f, -0.0391749f, -0.11065286f, 0.0062043685f, -0.018015342f, -0.051493622f, -0.024327066f, 0.0105530275f, 0.027828947f, 0.015390317f, 0.06473947f, -0.0024513945f, -0.028821852f, -0.035382178f, -0.03851547f, -0.025333844f, -0.00557828f, 0.022362845f, 0.023557616f, -0.041503556f, 0.050983515f, -0.032459177f, 0.008398263f, -0.023122247f, -0.05254723f, 0.012681226f, -0.048530214f, 0.0044490937f, -0.006803173f, -0.028390324f, 0.015171055f, 0.04162343f, -0.06443762f, 0.023998313f, -0.036967073f, 0.07312733f, 0.07085126f, 0.022817831f, 0.030342134f, 0.11778298f, 0.11580512f, -0.026578818f, -0.20322369f, -0.023371821f, -0.21385098f, 0.006121552f, 0.086797416f, 0.033710208f, -0.069643706f, 0.42126474f, 0.013264021f, 0.013158445f, 0.010524707f, -0.008687047f, -0.0023584745f, 0.027510913f, -0.0065396097f, -0.008066233f, -0.0034750088f, 0.035420336f, 0.07003826f, 0.038084194f, 0.047817156f, 0.05699939f, 0.033067916f, 0.01038684f, 0.010173104f, 0.049650405f, 0.023537565f, 0.030876063f, 0.06651181f, 0.03699299f, 0.071486376f, 0.063530244f, 0.025125688f, 0.031988043f, 0.06869547f, 0.0039566983f, -0.02691076f, -0.018213937f, 0.005358452f, -0.0026827469f, -0.013796746f, 0.03004571f, 0.0013274575f, -0.016439568f, -0.009243709f, -0.023620652f, 0.01985801f, 0.0063869553f, 0.008550058f, -0.016681746f, 0.038641516f, 0.014712003f, -0.017185576f, 0.0064477334f, -0.024336142f, -0.012532564f, -0.02127517f, -0.04412281f, -0.031934828f, 0.0017333745f, -0.00409986f, -0.036140103f, -0.011808596f, -0.015575017f, -0.02568814f, -0.019954942f, -0.006584995f, -0.029180786f, -0.0023630608f, -0.009549076f, -0.022371154f, 0.028358331f, 0.02886954f, 0.018744355f, 0.04343304f, 0.03809524f, 0.05455f, 0.02798634f, 0.0143622765f, 0.024345022f, 0.022577181f, 0.051355638f, 0.032674834f, 0.049353834f, 0.058388185f, 0.04420783f, 0.014775554f, 0.012084809f, 0.030994812f, 0.011097137f, 0.026137495f, -0.021579375f, 0.037977193f, 0.037141f, 0.01581821f, 0.004227428f, 0.05978006f, 0.015231983f, 0.017664097f, -0.028678313f, -0.012047083f, 0.011046023f, -0.011383483f, -0.028009076f, 0.011230261f, -0.023371998f, -0.014879229f, 0.027765386f, -0.029473845f, -0.011040055f, -0.0070497436f, -0.028093727f, -0.020878403f, -0.0018430928f, -0.021045893f, -0.0023807979f, 0.030848376f, 0.020471923f, 0.031958275f, 0.055472843f, 0.024611888f, 0.04046029f, 0.04058992f, 0.025054052f, 0.039738294f, 0.041467737f, 0.064614944f, 0.038224757f, 0.05401695f, 0.038258445f, 0.04401892f, -0.0017623536f, 0.02702011f, 0.056950435f, 0.028368488f, 0.017722297f, -0.011583753f, 0.015110408f, 0.007248801f, 0.004954382f, 0.0029533843f, 0.0061957613f, 0.0015192163f, -0.028038872f, -0.038801815f, -0.021538982f, 0.0010023454f, -0.030072737f, -0.01334728f, -0.019752642f, -0.03536173f, -0.010363232f, -0.013302299f, -0.026960706f, -0.014206377f, -0.058478314f, -0.06889315f, -0.07876765f, -0.059350137f, -0.0946421f, -0.06447443f, 0.035647646f, 0.042449642f, 0.015849175f, -0.035659295f, -0.047268935f, -0.0046958523f, -0.011539023f, -0.01796313f, 0.0057013035f, -0.065117486f, -0.09616795f, -0.048459433f, -0.075424984f, -0.049969774f, -0.057754487f, -0.06849142f, -0.06953261f, -0.038464177f, -0.012080431f, -0.01922735f, -0.0032977057f, -0.02238252f, -0.011761285f, -0.008925758f, -0.015719574f, 0.002032684f, -0.01459135f, -0.037091892f, -0.012638545f, -0.022148529f, -0.023311976f, -0.034963064f, -0.031450823f, 0.022841189f, 0.022057934f, 0.014336414f, 0.021055397f, 0.032058362f, 0.026117114f, 0.010173643f, 0.045123454f, 0.027343657f, 0.0064760097f, 0.014910824f, -0.009058242f, 0.00083765725f, -0.01735682f, -0.015122494f, -0.022807706f, -0.017932266f, -0.025214694f, -0.018764976f, -0.01761208f, -0.018315008f, -0.02487935f, -0.018628746f, -0.021223169f, -0.04565786f, -0.021052377f, 0.0050957464f, -0.025210684f, -0.015636241f, -0.006243852f, 0.016197653f, 0.013977775f, 0.018349411f, -0.034098785f, -0.037543118f, -0.030956646f, 0.02726785f, -0.015595175f, 0.003474487f, 0.037277155f, 0.016391711f, -0.0037546798f, -0.002515907f, -0.03134781f, -0.005069974f, -0.043166418f, -0.0005863025f, -0.031235673f, -0.00016065054f, 0.005254292f, 0.007974386f, -0.010719291f, 0.007561226f, 0.020196762f, -0.0061765076f, 0.0033546567f, -0.0039514094f, -0.0019577758f, 0.025670614f, 0.012735358f, 0.002642736f, 0.0229734f, 0.029484747f, 0.0095469635f, 0.022714036f, 0.0015888182f, -0.07132269f, -0.037558965f, -0.021794299f, -0.074335f, -0.048818264f, -0.005612813f, -0.03077654f, -0.007731583f, -0.015148186f, 0.034223124f, 0.022829195f, 0.013090597f, -0.029688248f, -0.04911284f, -0.027072689f, -0.031572733f, 0.0031355359f, -0.001383719f, -0.03995026f, -0.043619655f, -0.025150204f, -0.049025662f, -0.042795617f, -0.05351653f, -0.039111312f, -0.019892752f, -0.03872632f, -0.024196846f, -0.010926264f, -0.024452968f, -0.027680172f, -0.020926924f, -0.034156445f, -0.039964363f, -0.046379413f, -0.04038993f, -0.009265838f, 0.008351841f, 0.034762077f, -0.0113657145f, 0.0035767013f, 0.011213236f, -0.012418044f, -0.00903215f, 0.012175044f, 0.033502262f, 0.025440605f, 0.004337651f, 0.018578727f, 0.03791039f, 0.006358748f, 0.023423852f, 0.0647571f, 0.056650322f, 0.04327986f, 0.04382225f, 0.012864755f, 0.021130513f, 0.03708064f, 0.060996212f, 0.035561826f, 0.028854359f, 0.046353266f, 0.0011278184f, 0.0022981735f, -0.0012790324f, 0.007628452f, 0.004097227f, -0.016799418f, 0.007066698f, -0.010982468f, 0.017406829f, -0.025668936f, 0.018893752f, 0.011992277f, -0.029126698f, 0.0065278113f, -0.0079814615f, 0.015434764f, 0.02869494f, 0.03638488f, 0.03242299f, -0.011720624f, 0.015828827f, 0.017271006f, 0.018877756f, 0.027879896f, 0.016386863f, 0.00031474995f, -0.0053969384f, 0.032178435f, 0.03777389f, 0.04616577f, 0.0033725176f, 0.06483021f, 0.049845196f, 0.027511958f, 0.060099f, 0.05330873f, -0.020925822f, 0.027926844f, -0.030076f, -0.0052864607f, 0.008229328f, -0.045195565f, 0.0139827f, -0.0019554503f, 0.001521749f, 0.05039962f, 0.045878313f, 0.038129974f, 0.033230748f, 0.060450405f, 0.04735802f, 0.04117305f, 0.077583276f, 0.068664625f, 0.020495983f, 0.020604383f, 0.008765774f, 0.024786372f, 0.01768134f, 0.004021698f, 0.04746211f, 0.05534464f, 0.045640767f, 0.02935887f, -0.015439983f, 0.0065554082f, 0.030247608f, 0.022472814f, 0.012781169f, 0.0034690332f, 0.03077281f, 0.04150717f, 0.021402268f, 0.009212227f, 0.0176987f, 0.030564168f, 0.008822783f, 0.03996702f, 0.042571962f, 0.020811258f, 0.00679044f, 0.012888188f, 0.03129117f, 0.024148472f, 0.032863066f, 0.020562764f, 0.032775443f, 0.031418934f, 0.030251717f, 0.02667308f, 0.011155983f, 0.027227178f, 0.020604014f, -0.002958033f, 0.040357698f, 0.012222732f, 0.023137966f, 0.0587226f, 0.026363535f, 0.040519703f, 0.048024587f, 0.009834336f, 0.0782261f, 0.05876976f, 0.06275695f, 0.072245106f, 0.04472842f, 0.052728713f, 0.010174431f, 0.027791353f, -0.017136972f, 0.019330027f, -0.0034299619f, 0.011840228f, 0.012198367f, 0.027014531f, 0.03806292f, -0.08744685f, -0.03290313f, -0.06985111f, -0.107997134f, -0.10337187f, -0.077202655f, -0.092535615f, -0.013020369f, -0.021967607f, 0.0027251425f, -0.062054608f, -0.04249326f, -0.055718705f, -0.05912315f, -0.103855975f, -0.10194244f, -0.06395339f, -0.06297735f, 0.015421556f, -0.009241015f, -0.086512074f, -0.038205493f, 0.017778378f, -0.05455585f, -0.08253485f, -0.025853075f, 0.010928281f, -0.23855911f, 0.16139744f, 0.0039608004f, -0.23473908f, -0.1168464f, -0.24458234f, 0.120817184f, 0.27195555f, 0.11193265f, -0.07527004f, 0.12095036f, -0.0542689f, -0.1962884f, -0.115403675f, -0.17087072f, -0.06702802f, 0.07706367f, 0.03391525f, -0.09040407f, -0.0621323f, -0.035171945f, -0.05993652f, -0.11614265f, -0.043318383f, -0.09553292f, -0.087749235f, -0.074503265f, -0.11015433f, 0.1889588f, 0.06398753f, -0.032776f, -0.020325337f, -0.0026678434f, 0.07828025f, 0.1105019f, 0.020500321f, -0.020257097f, 0.05876704f, -0.007564645f, -0.033415467f, 0.026786111f, 0.017499948f, -0.01119817f, 0.15163653f, 0.04748244f, -0.07292245f, -0.011801137f, -0.062283743f, -0.11685125f, -0.06184042f, -0.04166574f, -0.096849486f, -0.035967525f, -0.022981787f, -0.06447414f, 0.04979543f, -0.016090319f, -0.05683756f, 0.026032683f, 0.024494972f, -0.022425167f, 0.11239687f, -0.049656395f, -0.14451112f, -0.017464371f, -0.037877586f, -0.0791717f, -0.118898876f, -0.04139308f, -0.07560849f, 0.012357013f, -0.09596578f, -0.055052273f, -0.041051593f, -0.046863895f, -0.05338826f, -0.005109376f, -0.047552247f, -0.074122794f, -0.06229097f, -0.06335188f, -0.013407073f, 0.019226713f, -0.0570324f, -0.017220898f, 0.016112646f, -0.0376985f, -0.014344951f, -0.022457406f, -0.060119595f, -0.03729432f, -0.041544423f, -0.048867133f, -0.055975318f, -0.04662216f, -0.021985568f, -0.048404407f, -0.014972009f, -0.08971106f, -0.010221814f, 0.0016724027f, -0.010326414f, -0.029837435f, -0.029581098f, 0.043947715f, -0.03172154f, 0.08354545f, 0.028787924f, -0.1061067f, 0.19928227f, -0.10423375f, -0.08930179f, -0.009156313f, -0.02680609f, -0.032096002f, 0.2668109f, 0.3705113f, 0.01703147f, 0.015168584f, -0.084577516f, 0.017323002f, -0.04331818f, -0.110360846f, -0.084451124f, -0.07977984f, -0.04813047f, 0.1449568f, 0.18446809f, -0.007051432f, 0.15085849f, 0.132385f, -0.0344313f, -0.0076317037f, 0.00204235f, 0.021513302f, -0.0040324023f, -0.046302337f, -0.027869198f, -0.06358379f, -0.08026896f, -0.07706836f, -0.08193663f, -0.104922645f, -0.021958396f, -0.007351687f, -0.040751588f, -0.04948918f, -0.026532188f, -0.06569976f, -0.018382335f, -0.009772179f, -0.06451443f, -0.016947465f, 0.05905686f, 0.10612968f, 0.061145313f, -0.019771293f, 0.07264428f, 0.08150205f, 0.016329788f, 0.024123298f, 0.035886943f, -0.12397765f, -0.0033329404f, 0.123472266f, -0.13600077f, -0.07499498f, 0.11941169f, -0.05075294f, -0.04055186f, 0.066961534f, -0.005262989f, -0.02318517f, -0.041581407f, -0.030189594f, -0.05832161f, -0.080117896f, -0.056589216f, -0.104441546f, -0.033755597f, -0.005339281f, -0.04736868f, 0.004711903f, -0.051761355f, -0.072615184f, -0.046875052f, -0.06800366f, -0.062255133f, -0.05533911f, 0.17808245f, 0.19622168f, -0.03342663f, 0.13098161f, 0.10660091f, -0.036358513f, -0.0022073141f, 0.005844987f, 0.02183141f, 0.08066454f, 0.060394973f, -0.06365169f, 0.07831401f, 0.0884938f, -0.008786842f, -0.057757184f, 0.0011430306f, -0.013317605f, -0.09545505f, -0.056821886f, 0.062480498f, -0.08014114f, -0.08165519f, 0.05153873f, -0.01992173f, -0.029031556f, -0.001905942f, -0.09263228f, -0.02503431f, 0.12572135f, -0.10674108f, -0.09647776f, 0.12523884f, -0.034311477f, -0.054957394f, 0.07344644f, -0.01129866f, 0.015343442f, 0.07249488f, -0.06830164f, -0.046891917f, 0.0054591983f, -0.09188681f, -0.06780083f, 0.024130937f, 0.1531791f, 0.16682768f, 0.009463933f, 0.14710675f, 0.091915905f, -0.021879079f, 0.011898708f, -0.010613104f, 0.026869332f, 0.07669347f, 0.06076478f, -0.04389779f, 0.065345794f, 0.013657343f, -0.013935083f, -0.060238153f, -0.022669125f, -0.026976166f, -0.044537548f, -0.04206957f, -0.043683525f, -0.07674959f, -0.03294037f, -0.03414576f, -0.10109446f, -0.002935959f, 0.005584098f, -0.03822428f, -0.08086858f, -0.029749861f, -0.055859417f, -0.014377028f, -0.025028337f, -0.04933808f, -0.055686686f, -0.055114396f, 0.024540747f, 0.014856922f, 0.02283472f, 0.030890688f, -0.008387067f, -0.023978926f, 0.07628432f, 0.07709818f, 0.07073965f, -0.113782965f, -0.17373006f, -0.14132726f, -0.11378683f, -0.1594696f, -0.11465615f, -0.14290906f, -0.15488257f, -0.101291105f, -0.024955198f, -0.0025769698f, -0.001638414f, -0.025480973f, -0.00038943306f, 0.019207299f, -0.021072121f, -0.025672076f, -0.01317503f, 0.025548613f, -0.008530803f, -0.0019617183f, 0.043044962f, 0.006493358f, -0.0019330641f, 0.04933088f, 0.09228715f, 0.039726038f, 0.02191391f, 0.017809575f, 0.060565136f, 0.033622008f, 0.06342474f, 0.04336298f, 0.020111876f, 0.028659448f, 0.022711556f, -0.009382786f, -0.02197872f, 0.013758635f, -0.029307062f, -0.04552142f, -0.00838845f, -0.0079119f, 0.0016178677f, 0.0062243636f, -0.057465937f, -0.08467164f, -0.025631063f, -0.049155373f, -0.06855881f, -0.060188293f, -0.035382938f, -0.06882605f, -0.036648232f, -0.010455286f, 0.02036694f, 0.004485726f, 0.07432242f, 0.014423466f, 0.027275372f, 0.12262699f, 0.07917265f, 0.101053335f, -0.00799068f, -0.02045089f, -0.0008486952f, -0.046362817f, -0.016310573f, -0.009165378f, 0.044752944f, 0.006040661f, 0.022760032f, 0.016977487f, -0.00019082549f, -0.015099661f, -0.024773797f, 0.026873546f, -0.020695977f, -0.031488795f, -0.021588217f, -0.031116905f, -0.03478768f, -0.04105905f, -0.0005554514f, -0.058984254f, 0.0005998497f, 0.022652265f, -0.033017397f, -0.05230156f, -0.0004661384f, -0.08123672f, -0.10157547f, -0.057583284f, -0.087975495f, -0.047094595f, -0.07928409f, -0.03559703f, -0.055751283f, -0.061663657f, -0.025994513f, 0.0067268847f, 0.020498596f, 0.0061352225f, -0.047383524f, -0.03061016f, 0.03771457f, 0.04561525f, 0.062043402f, -0.023036072f, -0.04096887f, -0.038143523f, -0.03244427f, -0.05914745f, -0.048373718f, 0.014300384f, -0.033002965f, -0.0037063276f, -0.054360215f, -0.038585734f, -0.03570147f, -0.04707872f, -0.032622807f, -0.036980715f, -0.009967346f, -0.0389849f, -0.030139908f, 0.026872825f, -0.03363423f, 0.0055799875f, -0.021314425f, -0.005196596f, -0.02759404f, -0.0039948155f, -0.026916193f, -0.058660407f, -0.036441695f, -0.08498425f, 0.0017688539f, -0.0039049373f, -0.016139459f, -0.064742625f, -0.037242293f, -0.048053063f, -0.12874663f, -0.048939377f, 0.0014015104f, -0.019356437f, 0.00204645f, -0.010756456f, 0.023849372f, -0.041709058f, -0.059356987f, -0.08313989f, 0.03613251f, 0.017123139f, 0.05715709f, 0.106989734f, -0.12614293f, -0.12669376f, 0.021960225f, 0.08592853f, 0.06484452f, 0.027428724f, 0.025001202f, 0.08423098f, -0.005525685f, -0.07047068f, -0.07400043f, 0.005523466f, -0.0414679f, 0.00903168f, -0.054400537f, -0.062371675f, -0.058066487f, -0.061003674f, -0.05769996f, -0.054279298f, -0.10745663f, -0.1040004f, -0.05249666f, 0.10126862f, 0.11086642f, 0.13415962f, 0.11551581f, -0.057403892f, 0.02798743f, -0.017409425f, 0.10746334f, 0.27105197f, -0.03554238f, -0.032749895f, -0.030315034f, 0.007578674f, -0.09932317f, -0.053456236f, -0.023336489f, -0.028758338f, -0.08914177f, -0.03534896f, -0.0038485853f, -0.017604603f, -0.025157955f, -0.045293517f, -0.09641528f, -0.073895685f, -0.07061529f, -0.048515122f, -0.04651074f, -0.10517167f, -0.09527717f, -0.037588645f, -0.114027f, -0.103445135f, -0.08920102f, -0.063829616f, -0.12961227f, -0.031931408f, -0.014263685f, -0.020480417f, -0.06026414f, -0.064527325f, -0.05841756f, -0.080641f, -0.043452065f, -0.049092136f, -0.07130322f, -0.04426858f, -0.032084182f, -0.10751376f, -0.08544966f, -0.06012954f, -0.033821158f, -0.09969742f, -0.062833585f, -0.0050768736f, -0.055683006f, -0.025171183f, -0.014470455f, -0.028426014f, 0.004662791f, -0.07800255f, -0.035908338f, -0.060107753f, 0.0061515267f, 0.0020559481f, -0.022110771f, -0.05278335f, -0.0046274667f, -0.022792807f, -0.083038f, -0.0723572f, -0.09098192f, -0.025469592f, -0.0065591554f, -0.013658967f, -0.010231958f, -0.07357015f, 0.008927139f, -0.09303085f, -0.07533625f, -0.027860114f, 0.0082545495f, 0.006079529f, 0.014529486f, 0.22700627f, 0.0038553914f, 0.079304315f, 0.07292456f, -0.017791886f, 0.008688102f, 0.0050082495f, 0.020577341f, -0.035618372f, 0.0059689013f, -0.008655796f, -0.013416205f, -0.0019995274f, 0.0096812835f, 0.01210212f, 0.09244709f, 0.11672657f, -0.0049900343f, 0.10071558f, 0.11335959f, 0.0152831655f, 0.005500986f, 0.10226177f, 0.0589324f, 0.025960114f, 0.05490616f, 0.031122347f, 0.037239555f, 0.049353283f, 0.063971326f, 0.043107476f, 0.050902173f, 0.06717807f, 0.0033410804f, -0.022920534f, -0.0294533f, 0.0346424f, 0.0007202677f, -0.023995299f, 0.022754895f, -0.02122598f, -0.019500569f, 0.03112497f, 0.14232332f, 0.122947425f, 0.01262416f, 0.062462762f, 0.07902206f, 0.030480979f, 0.024805361f, 0.058150984f, -0.010123863f, -0.026905661f, 0.087666705f, 0.009954388f, -0.01704452f, 0.059501924f, 0.06599389f, -0.018275466f, -0.01332859f, -0.0018285839f, -0.044424273f, -0.06696577f, -0.02620628f, -0.021080183f, -0.04598718f, -0.00897781f, -0.031321272f, -0.026953861f, -0.0017519585f, 0.017774714f, 0.020193864f, 0.006311295f, 0.012519083f, 0.012769834f, 0.005287637f, -0.00036001738f, 0.024093922f, 0.09051896f, 0.1545773f, 0.01753514f, 0.07086159f, 0.14911945f, 0.05192157f, -0.031497166f, 0.060085457f, 0.04724837f, 0.00072099577f, 0.034686424f, 0.021375641f, 0.066784084f, 0.08273601f, 0.053971145f, 0.047700137f, 0.11825678f, 0.055638447f, -0.0032265554f, -0.055657078f, 0.06403195f, 0.026373511f, -0.0037126853f, 0.034012318f, 0.053986736f, 0.018127048f, 0.0013047585f, -0.026356805f, -0.026838254f, 0.056876913f, 0.013592557f, -0.024439193f, -0.007190173f, 0.026953053f, -0.026917098f, -0.014454234f, -0.02355051f, 0.013790462f, 0.08308052f, -0.012853185f, -0.013345854f, 0.014378409f, 0.011831402f, -0.005780217f, 0.0041309763f, 0.116596304f, 0.11299485f, -0.010972169f, 0.079031006f, 0.1400517f, 0.04544853f, 0.0069575515f, 0.092425734f, 0.07187751f, 0.031601977f, 0.013966258f, -0.04407524f, 0.029268043f, 0.010787117f, -0.038501654f, -0.040111706f, -0.0072099087f, -0.0014331414f, -0.034045734f, -0.0069202334f, -0.01096872f, -0.016320879f, -0.016189327f, 0.0021328505f, -0.0310633f, -0.04178272f, -0.01387202f, -0.08995027f, -0.07186957f, -0.03623642f, 0.017054174f, 0.045022447f, -0.035524048f, -0.09082974f, -0.049232487f, -0.073971696f, -0.05333241f, -0.080685735f, 0.06529154f, 0.024219058f, 0.08365079f, 0.14385639f, -0.056282654f, 0.113645025f, 0.1257628f, -0.097243f, -0.045176256f, -0.05363579f, -0.06606136f, -0.09756023f, -0.078116745f, -0.111574076f, -0.14296977f, -0.08087612f, 0.024854762f, 0.046392053f, 0.056218497f, 0.005737625f, 0.02092694f, -0.01369102f, 0.018062627f, 0.041427746f, -0.04382733f, -0.0058604456f, 0.02624229f, 0.016903523f, -0.01155833f, 0.044553038f, 0.04325931f, 0.012547539f, 0.021371901f, 0.074216306f, 0.13655731f, 0.13336825f, -0.0036333057f, 0.11782326f, -0.093881674f, -0.10132007f, 0.0337491f, -0.11521777f, -0.1170502f, -0.091699384f, -0.048792996f, -0.026899029f, -0.092472106f, -0.020886766f, -0.0045082867f, -0.05791916f, -0.008674264f, -0.038781866f, -0.06211765f, -0.098634385f, -0.041664034f, -0.026408585f, -0.09422576f, -0.07497757f, -0.04531877f, -0.08879781f, -0.15477434f, -0.1304044f, -0.057746127f, 0.07604787f, 0.013531822f, 0.11889577f, 0.12815914f, -0.03701881f, 0.08585561f, 0.073822096f, -0.046855908f, -0.06641138f, 0.043642946f, -0.025311692f, 0.02738508f, 0.06694249f, -0.022565845f, 0.0584642f, 0.035207234f, 0.0698211f, 0.025318928f, -0.039885752f, 0.035876196f, -0.06798812f, -0.13803618f, 0.05874098f, -0.10600316f, -0.08512012f, 0.058727413f, 0.043392915f, -0.06080625f, 0.029169157f, -0.088446066f, -0.11185186f, -0.02021406f, -0.16281953f, -0.13290122f, -0.0082070045f, -0.017695906f, -0.037732165f, -0.009753054f, -0.073360525f, -0.008195686f, -0.036286198f, -0.07367019f, -0.04359175f, -0.1106229f, -0.0803806f, 0.060253065f, -0.027399799f, 0.081719406f, 0.12618715f, -0.03750724f, 0.097621985f, 0.09492291f, -0.10447768f, -0.07830216f, -0.0037304107f, 0.003376436f, 0.021298777f, 0.057929754f, -0.05477704f, 0.019308964f, 0.022381563f, -0.060716264f, -0.09783318f, -0.06708782f, -0.05851881f, -0.077658035f, -0.059447795f, -0.04841888f, -0.0628037f, -0.03463161f, 0.08411867f, 0.07893114f, 0.0684314f, 0.081461295f, 0.082283854f, 0.10915562f, 0.08650812f, 0.06523089f, 0.10947133f, 0.03344678f, 0.043014415f, 0.027598694f, -0.00015032983f, 0.01449096f, 0.024371281f, -0.003175967f, -0.003680004f, 0.004168074f, 0.010135354f, -0.018394364f, 0.008866052f, -0.012073265f, -0.013808126f, -0.03192537f, -0.04900372f, -0.04903997f, -0.09256276f, -0.0027842328f, 0.006073874f, 0.04321254f, 0.024608748f, 0.040490326f, 0.0012980542f, 0.017104998f, 0.02379537f, -0.0032398861f, 0.0075511937f, -0.021180926f, 0.020028353f, 0.04664353f, 0.018747885f, 0.002516178f, -0.021980034f, -0.018082147f, 0.001569654f, -0.0075567127f, 0.036145598f, -0.015259942f, 0.013395118f, 0.014162581f, -0.0053919223f, 0.029308561f, 0.014426773f, -0.029421335f, 0.047961146f, 0.024291262f, 0.00501193f, -0.0016597551f, 0.066400535f, 0.020340573f, 0.056552425f, 0.029164366f, 0.069665216f, 0.014652581f, 0.0042601177f, 0.036386874f, 0.020283666f, -0.0067111845f, 0.028460922f, 0.005756898f, 0.0228453f, 0.0005051519f, 0.068059765f, 0.055170476f, 0.047211807f, 0.0109409f, -0.023973942f, 0.015075965f, -0.055851743f, -0.0016589132f, 0.0025137472f, -0.021466319f, 0.025846016f, -0.014916096f, 0.009491347f, 0.043084983f, 0.06738844f, -0.02920736f, 0.040672902f, 0.015849933f, 0.0073525873f, 0.034189824f, 0.0028130757f, 0.01698235f, 0.061101172f, 0.05600768f, 0.0086541725f, -0.00614215f, 0.005035352f, -0.015131291f, 0.0075588287f, -0.0072387634f, -0.023567414f, -0.014037643f, -0.019675042f, 0.0031154184f, 0.017249294f, -0.053661272f, -0.06037785f, -0.058198202f, -0.03712154f, -0.055984795f, -0.078582175f, -0.068909325f, -0.0694313f, -0.053755626f, -0.059835415f, 0.04153879f, 0.019129217f, 0.020196153f, 0.010417069f, 0.01780192f, 0.009213106f, -0.017717717f, -0.011992599f, -0.00791608f, 0.0563806f, 0.09466002f, 0.023451472f, 0.036138434f, 0.05978176f, 0.109305106f, 0.034684055f, 0.037705284f, 0.018989768f, -0.045981508f, -0.032752283f, 0.044566177f, 0.0059835454f, -0.032692872f, 0.016179984f, -0.0024962812f, -0.041569643f, 0.03878836f, 0.036330953f, 0.035141475f, 0.023334645f, 0.026201544f, 0.059055444f, 0.03009788f, 0.027618516f, 0.07153671f, 0.06957469f, 0.075212896f, 0.010447275f, -0.072536565f, 0.032148805f, 0.037832137f, -0.038385477f, 0.049453367f, 0.05984183f, 0.0418622f, -0.033206526f, -0.028368626f, -0.03282033f, -0.022997554f, -0.038809545f, -0.019403933f, -0.011191557f, 0.011767197f, -0.034680855f, -0.009201859f, 0.05995387f, 0.08337306f, -0.023641478f, 0.001388564f, -0.06588298f, 0.04247195f, -0.023669286f, 0.02998335f, 0.028161243f, 0.06378325f, 0.06862726f, 0.0019739016f, -0.0013578748f, 0.023892779f, -0.005573345f, 0.053109445f, 0.06955553f, -0.081363335f, -0.0029061593f, 0.11416496f, -0.07303788f, -0.0072268923f, 0.08614167f, -0.0687227f, -0.06777737f, 0.007688207f, 0.11603499f, 0.08639686f, 0.10470189f, 0.004201953f, 0.0377138f, 0.03260827f, 0.07707067f, 0.037912305f, 0.068055704f, 0.00040287175f, 0.021146894f, -0.016102012f, 0.022044167f, -0.018869314f, -0.032135222f, 0.021631762f, -0.0074809426f, -0.016591664f, 0.0703503f, 0.0017938791f, -0.05305037f, 0.015238494f, -0.003964752f, 0.0019086652f, 0.007327405f, 0.03789757f, 0.040529888f, -0.020305438f, 0.002656379f, -0.001804573f, 0.0047808955f, 0.013547524f, -0.033370458f, 0.03163412f, 0.029428683f, -0.029153584f, -0.0042831996f, 0.01460798f, 0.02380818f, -0.020576145f, -0.07284722f, 0.06712687f, -0.0011183434f, -0.057168595f, 0.049801275f, -0.084280394f, -0.019980758f, 0.06446597f, -0.08823133f, -0.050272133f, 0.048896864f, -0.05520829f, -0.093579374f, -7.574513e-05f, 0.0041903993f, -0.03227946f, 0.045599908f, -0.0005766875f, -0.017837858f, 0.03452244f, -0.030607471f, -0.0484089f, -0.011834489f, 0.0374868f, 0.009482968f, -0.05729042f, 0.027369704f, 0.03493217f, 0.014152799f, 0.06223391f, 0.036907166f, 0.005915494f, 0.03742923f, 0.026297964f, 0.008753938f, 0.08440584f, 0.05678099f, 0.013129128f, 0.0765657f, 0.042928234f, 0.052278657f, 0.017115025f, 0.01969414f, 0.012092544f, -0.017025772f, -0.001872097f, 0.005033075f, -0.02001671f, 0.010071875f, 0.0003915348f, -0.046043295f, 0.01324126f, 0.014889673f, 0.019131731f, 0.015856326f, 0.013743081f, -0.02486524f, 0.019598821f, 0.04399673f, 0.01777915f, 0.0014782128f, 0.034130096f, 0.032107633f, -0.019931326f, 0.029221496f, 0.007123004f, 0.0032191637f, 0.0030249245f, -0.044868924f, -0.023232065f, -0.025968384f, 0.010045674f, -0.016600689f, -0.020682938f, 0.010099275f, 0.01651016f, -0.011850858f, -0.060770653f, -0.11145976f, 0.003163539f, -0.0078024287f, 0.05293224f, 0.08415644f, 0.025247231f, 0.023228062f, 0.087954685f, -0.042228412f, -0.085183784f, -0.012886587f, -0.05228497f, -0.017057106f, 0.0092057735f, 0.012424538f, -0.05587935f, -0.0071039703f, -0.06604022f, -0.06450242f, -0.05374949f, -0.045863014f, -0.03228653f, -0.04502368f, -0.0043005864f, 0.00806537f, -0.0032533905f, -0.022095662f, -0.073854856f, 0.03458847f, -0.0007061297f, 0.078257136f, 0.12548909f, 0.021412736f, 0.05825706f, 0.048064493f, -0.014857f, -0.05820459f, -0.018415654f, 0.049860287f, -0.021998601f, 0.017297562f, 0.03733871f, 0.012136511f, 0.045071103f, 0.014279455f, -0.041530326f, 0.021228535f, 0.016504265f, 0.021351099f, 0.03241404f, 0.034714736f, -0.005269494f, 0.055284042f, -0.034716282f, -0.061744466f, -0.0060866643f, 0.008835051f, 9.8294935e-05f, 0.031278625f, -0.011888549f, 0.025942981f, 0.07236659f, -0.06958963f, -0.0541723f, -0.019600583f, -0.051735815f, 0.024954392f, -0.025121745f, -0.00068122323f, 0.033998918f, 0.020362258f, -0.061606117f, -0.059150513f, -0.042279135f, -0.020731578f, -0.040669527f, -0.047736328f, 0.02530331f, -0.018951485f, -0.055180978f, 0.012154295f, -0.03221739f, 0.010793857f, 0.0069858874f, 0.02275102f, -0.035924967f, 0.021874687f, 0.031516388f, 0.0067541427f, 0.018166712f, -0.0077575524f, 0.007558043f, -0.003535835f, -0.012546506f, -0.008382534f, 0.03714237f, 0.03392287f, 0.05949783f, 0.012667697f, -0.0064913905f, 0.055898648f, 0.007266989f, 0.06625533f, 0.007267195f, 0.047478914f, 0.060376126f, 0.025563892f, -0.059238296f, -0.06643827f, 0.067654744f, -0.025079105f, -0.052231025f, 0.045163676f, 0.08294106f, -0.0886038f, 0.21232907f, 0.03447037f, 0.0069786957f, 0.01055769f, 0.018716484f, 0.030003294f, 0.034631077f, 0.03347614f, 0.05703974f, 0.04874907f, -0.008441354f, -0.007478474f, -0.044350687f, -0.038751394f, -0.048527125f, -0.052527808f, -0.0427516f, -0.050050702f, -0.04225709f, 0.012502462f, -0.013128064f, 0.008907661f, 0.01427721f, 0.02878423f, -0.012971943f, 0.023949767f, 0.01946632f, 0.03641043f, 0.02231045f, 0.08181246f, 0.024899386f, 0.03535711f, 0.056747183f, -0.013250703f, 0.034064442f, 0.005121707f, -0.046585992f, 0.033144653f, 0.06405171f, 0.028359799f, 0.06752103f, 0.07957919f, -0.01331505f, 0.05723489f, 0.055162176f, 0.010048017f, -0.06681819f, -0.029232604f, 0.0011128866f, -0.024675103f, 0.0043499433f, -0.0026943395f, -0.015763469f, -0.02372949f, 0.009463773f, 0.016514422f, 0.05456241f, 0.043939505f, 0.07661709f, 0.03876781f, 0.06183167f, 0.076172315f, 0.037746616f, 0.026617885f, 0.04053505f, 0.06676118f, -0.016353432f, 0.05877036f, 0.011137042f, -0.017464658f, 0.04082371f, 0.031087203f, 0.030702822f, 0.004905345f, -0.050350524f, -0.022649258f, -0.03818084f, -0.032736648f, -0.064454116f, -0.043010358f, -0.05074921f, -0.060989138f, -0.038660903f, 0.016662445f, -0.028901592f, 0.008160121f, -0.026083412f, -0.0504604f, 0.032440145f, 0.05307018f, -0.024884839f, -0.0890583f, 0.029128918f, -0.02044576f, -0.049543552f, 0.030319573f, -0.0095651485f, -0.026818015f, 0.0019153496f, 0.0013130886f, -0.012216791f, 4.4506373e-06f, 0.008401575f, -0.042663105f, 0.016081586f, 0.027744481f, -0.03573466f, -0.022077555f, 0.0015283015f, -0.0054991106f, -0.009748982f, -0.005717088f, -0.04232121f, 0.009096679f, -0.05795694f, 0.00026179978f, 0.008435277f, -0.02307219f, -0.021791853f, -0.0252644f, -0.038821556f, -0.060728386f, -0.043062165f, -0.04950688f, -0.043811668f, -0.05105221f, -0.061575357f, 0.0239321f, -0.010482202f, 0.0063794963f, 0.01877354f, -0.010373136f, -0.00039950162f, 0.032347616f, -0.0054584127f, -0.011988914f, 0.076728955f, 0.11688884f, -0.00021963095f, 0.1363811f, 0.14115071f, -0.04653454f, 0.0009977922f, 0.023017513f, -0.017838486f, 0.026556099f, 0.011108896f, 0.027327837f, -0.062581174f, -0.038441047f, -0.054263078f, -0.100868955f, -0.15532687f, -0.15000153f, 0.12866642f, 0.14509055f, 0.14359044f, 0.059343193f, 0.048598845f, 0.06389045f, -0.08609514f, -0.0719649f, -0.09371462f, 0.035298496f, 0.017644538f, 0.07105711f, -0.14955692f, -0.15585512f, -0.10465012f, -0.20182674f, -0.22494975f, -0.18275645f, 0.083073795f, 0.08866139f, 0.00264324f, -0.020741869f, -0.058209617f, -0.08236127f, -0.04119528f, -0.11382986f, -0.09168366f, 0.014819937f, 0.041930784f, 0.02010875f, -0.038125154f, -0.009471149f, -0.0132855335f, -0.021711465f, 0.015262671f, -0.044235133f, -0.01347153f, -0.07293989f, -0.0027254885f, -0.02349602f, -0.08138214f, -0.0075015137f, -0.015669204f, -0.0009103615f, 0.07143092f, 0.06886851f, 0.07080019f, 0.10411498f, -0.039810937f, -0.08225613f, -0.0137550775f, -0.039180756f, -0.13924764f, -0.116327435f, 0.06316818f, 0.08472606f, 0.06296301f, -0.02343777f, -0.023361748f, -0.04143534f, -0.06605565f, -0.16093439f, -0.12391475f, 0.08138672f, 0.17193456f, 0.14913349f, 0.03755845f, 0.02058868f, 0.004689663f, -0.08042409f, -0.071915284f, -0.113808386f, 0.044122566f, 0.100487076f, 0.092409424f, 0.031993758f, 0.042137932f, 0.023476401f, -0.04641357f, -0.07372723f, -0.10311917f, 0.025446555f, -0.1036365f, -0.09157401f, -0.0036332887f, -0.08523582f, -0.047452107f, 0.011649614f, -0.037244454f, 0.01658956f, -0.011996706f, -0.06176476f, -0.061231293f, -0.063514434f, -0.13672945f, -0.012832407f, -0.05981572f, -0.082125254f, 0.00263638f, 0.039739657f, 0.0626262f, 0.10165479f, -0.024664663f, -0.10286068f, -0.04567615f, -0.12135337f, -0.12469627f, -0.04965502f, 0.095226385f, 0.12777673f, 0.15979093f, 0.029976668f, 0.03554907f, 0.044704262f, -0.054619487f, -0.058927365f, -0.09738038f, 0.022807965f, 0.037166983f, 0.073730014f, -0.024428435f, -0.06392375f, -0.052748468f, -0.10554256f, -0.17115556f, -0.13444273f, 0.07521017f, 0.07538551f, -0.0025007701f, -0.000115967036f, 0.029949883f, -0.009155495f, -0.0061323233f, 0.04404907f, -0.03219186f, -0.042493667f, 0.0012675009f, -0.019735359f, -0.049482856f, -0.07576123f, -0.08554373f, -0.0069313445f, 0.009073038f, 0.024156395f, -0.014567518f, -0.057015557f, -0.062813796f, -0.0077635827f, -0.011344669f, -0.04436705f, -0.061377507f, -0.07032401f, -0.079565875f, -0.060107935f, -0.0879673f, -0.05964742f, 0.03586143f, -0.04205906f, -0.02506311f, -0.03067352f, -0.07847884f, -0.1259801f, -0.004568586f, -0.092903115f, 0.09788542f, -0.37638932f, -0.27007854f, -0.22180006f, 0.13010587f, 0.21455292f, 0.4078063f, 0.012934595f, -0.05562914f, 0.06710392f, -0.15964414f, -0.18883583f, -0.10527331f, 0.12412712f, 0.06381566f, 0.27017352f, -0.08496488f, 0.0009434262f, 0.008235074f, -0.022539765f, 0.039330103f, 0.0512536f, 0.006067596f, -0.041767757f, 0.0094637f, 0.074458055f, 0.03284145f, 0.2179261f, -0.18163976f, -0.06417766f, 0.007958172f, 0.14138839f, 0.06959807f, 0.47795248f, 0.0071582193f, -0.0085550975f, -0.095505826f, 0.048269346f, 0.050108775f, -0.060406346f, 0.09898245f, 0.04877983f, -0.02305241f, -0.014865384f, -0.026708463f, -0.092251636f, 0.0056516193f, -0.06736646f, -0.051130086f, 0.009916673f, -0.017720843f, -0.054958127f, -0.041299902f, -0.077909164f, -0.091232695f, -0.034064654f, -0.050711825f, -0.06343463f, 0.032846216f, -0.05996344f, -0.027716022f, -0.018988844f, -0.04477548f, 0.08088549f, 0.03667879f, -0.03701075f, 0.08578355f, -0.0040182984f, 0.027806938f, 0.022852356f, -0.04555148f, 0.002740207f, -0.0057409005f, 0.051296752f, -0.01640503f, -0.012084381f, -0.0011002711f, 0.01584053f, 0.012035637f, 0.021260295f, -0.043444853f, 0.047382373f, 0.052609563f, -0.0033981544f, 0.0516047f, 0.033680696f, -0.024738682f, -0.030173244f, -0.043956034f, -0.008717445f, -0.05222331f, -0.020619385f, 0.022398897f, -0.09951203f, -0.029651405f, -0.029652337f, -0.07968941f, -0.039823417f, -0.015339715f, 0.06793843f, -0.021782493f, 0.07175022f, 0.114657104f, 0.060154643f, 0.043891888f, 0.1609537f, -0.06784401f, -0.16286957f, -0.1326118f, -0.06392557f, -0.11477526f, -0.2937133f, 0.40904295f, 0.013077133f, 0.07838013f, 0.060446676f, 0.04541535f, 0.06254514f, 0.03231132f, 0.0778063f, 0.08019706f, 0.08290098f, 0.09020758f, 0.08087913f, -0.0042130575f, -0.0033950086f, 0.017998423f, -0.008723462f, -0.013242131f, 0.018326811f, 0.0496777f, 0.016519448f, 0.037216794f, 0.0035678577f, 0.004856674f, 0.009522521f, 0.017668298f, 0.036567695f, -0.0117301345f, 0.06071401f, 0.058828205f, 0.049053315f, 0.06844349f, 0.0422957f, 0.040304538f, 0.045244575f, 0.0013119001f, -0.023208607f, -0.010915434f, -0.01466801f, 0.09471632f, 0.088559225f, -0.0013754631f, -0.027555287f, 0.10069812f, 0.048134945f, -0.0049036723f, 0.15262322f, 0.070601925f, 0.04873887f, 0.022683429f, 0.05513855f, 0.0029996834f, 0.034270864f, 0.048974786f, 0.066740155f, 0.026886307f, 0.049533524f, 0.07722614f, 0.10911483f, 0.10932454f, 0.0541533f, 0.080740586f, 0.058577213f, 0.027555812f, 0.07631593f, 0.054625098f, 0.094063215f, -0.033158205f, 0.023329124f, -0.06853043f, -0.0008423399f, 0.034644462f, 0.036475334f, 0.026705863f, -0.0058532376f, 0.0047350507f, 0.0015072522f, -0.017206822f, 0.03110859f, 0.023246258f, 0.010767255f, 0.030026833f, 0.07139888f, 0.039356317f, 0.07926461f, 0.046248622f, 0.08663312f, 0.025619423f, 0.06741084f, 0.03679062f, 0.028458303f, 0.05212999f, 0.056716733f, 0.08566273f, 0.046145137f, 0.06851183f, 0.013504396f, 0.116066895f, 0.06530596f, 0.060939513f, 0.08743752f, 0.045314647f, 0.10124138f, 0.035565786f, 0.01203193f, -0.010085313f, 0.084372625f, 0.030105367f, 0.064014964f, 0.023103377f, 0.07086011f, 0.03746499f, -0.0044754837f, 0.006998218f, -0.025239985f, 0.03784377f, 0.008258479f, -0.03478929f, 0.012181622f, 0.02791604f, -0.018044798f, 0.0064416407f, 0.01743552f, -0.0011615546f, 0.03697803f, -0.0024724805f, -0.0057997014f, 0.024852475f, 0.031228375f, 0.07821151f, 0.06546681f, 0.053504393f, 0.025250115f, 0.039253008f, 0.070000164f, 0.08314209f, 0.120354205f, 0.030793844f, 0.088134766f, -0.0043040398f, 0.003308641f, -0.036413256f, 0.014174829f, -0.040784582f, -0.053661767f, 0.02529691f, 0.009535452f, -0.048085567f, -0.019237528f, -0.025007937f, -0.014290477f, -0.010659611f, -0.014207254f, -0.010128724f, -0.072221965f, -0.046580777f, -0.021528175f, -0.071173094f, -0.057579853f, -0.036798634f, -0.032954488f, -0.013394831f, -0.020958684f, -0.022973184f, -0.056733612f, -0.012293252f, -0.017687958f, -0.06358794f, -0.021162733f, -0.054843824f, 0.0009718489f, -0.06202637f, -0.11436623f, -0.114541724f, -0.10135701f, -0.043566566f, 0.082300685f, 0.10421029f, 0.066161364f, 0.08782173f, 0.046713617f, 0.014427237f, 0.06679642f, 0.03905166f, -0.025821378f, 0.020363793f, 0.058032434f, 0.014678755f, 0.016950682f, 0.008944815f, -0.06513314f, -0.013619749f, 0.021867037f, -0.04093466f, -0.041281924f, -0.053637818f, -0.06676408f, -0.07099681f, -0.052529383f, -0.073964655f, -0.07220074f, -0.032761957f, -0.0187487f, 0.0409317f, 0.103513405f, 0.10027495f, 0.049127683f, 0.1291983f, 0.03785814f, 0.061564058f, 0.014994548f, -0.0498798f, -0.03696903f, 0.024995882f, 0.0044545475f, 0.04681773f, 0.025419623f, -0.040591847f, -0.0017739055f, 0.011977826f, -0.07334135f, -0.020192515f, -0.031836674f, 0.00017900133f, 0.0049632895f, 0.0031338246f, -0.05462367f, -0.063613884f, -0.02663047f, 0.006497116f, -0.0151845515f, -0.0057856645f, 0.07547658f, 0.03302598f, -0.009911133f, -0.0113238115f, 0.0005443337f, -0.041041616f, -0.021467436f, -0.054726645f, -0.04266218f, -0.057505406f, -0.06560308f, -0.06696529f, -0.047559626f, -0.059596293f, -0.046569183f, 0.017118994f, -0.020526314f, -0.019661376f, -0.034112256f, -0.032873463f, -0.013865893f, -0.042941645f, -0.061765637f, -0.030822188f, -0.0122684315f, -0.01999984f, -0.0241577f, -0.035588562f, -0.035357893f, -0.012998595f, -0.05109182f, -0.022363467f, -0.06446323f, -0.054769795f, -0.03813249f, 0.0003529642f, -0.013713835f, 0.02025561f, 0.007844577f, -0.08209433f, -0.019687977f, -0.02685314f, -0.019351104f, -0.010572628f, -0.06619601f, 0.0023977426f, -0.029578004f, 0.025670188f, -0.054423116f, -0.039897617f, -0.10144383f, -0.009774956f, 0.0008246205f, 0.12880772f, 0.08992288f, 0.11826939f, 0.04243593f, -0.09069028f, 0.00039224862f, 0.08900015f, -0.08218833f, -0.121496044f, -0.100326195f, 0.063899584f, -0.015516575f, 0.039386384f, 0.023232242f, -0.010776543f, -0.00819164f, -0.10433392f, -0.21921057f, -0.14315607f, 0.04515794f, 0.018664762f, 0.046440165f, 0.2196884f, 0.2532219f, 0.17766024f, 0.019189326f, -0.066706575f, -0.09596621f, 0.08010904f, -0.007716093f, -0.08590861f, 0.10852185f, -0.039205413f, -0.087091796f, 0.031650297f, 0.049283087f, 0.0594924f, -0.0049329675f, 0.029353112f, -0.014659451f, 0.018491587f, 0.04957888f, 0.0015876802f, 0.0096336715f, -0.08270872f, -0.031440426f, 0.13093707f, 0.12008422f, 0.0605436f, 0.025336396f, 0.14173166f, 0.09891933f, 0.16162132f, 0.1521732f, 0.12659557f, 0.009080911f, -0.027013922f, -0.045456346f, -0.0732478f, -0.1860242f, -0.09225819f, -0.0987194f, -0.16363035f, -0.112438485f, -0.023419615f, -0.039553627f, -0.032456614f, 0.0068500643f, 0.031094033f, 0.014966518f, -0.13754368f, -0.22741088f, -0.19336097f, -0.091308504f, -0.120692596f, -0.10300668f, -0.059848253f, -0.11222464f, -0.13242319f, -0.1348378f, -0.23732015f, -0.15766464f, 0.16182463f, 0.13670513f, 0.06916004f, 0.22093613f, 0.24730612f, 0.16774519f, -0.13295968f, -0.15236267f, -0.15358275f, -0.060493693f, -0.05734477f, -0.08259393f, 0.14002028f, 0.13094066f, 0.06958496f, 0.0591491f, 0.08729177f, 0.12852108f, -0.019423114f, -0.058721025f, -0.1137946f, -0.00078517356f, -0.09341964f, -0.08837716f, 0.08583755f, 0.104863144f, 0.03887605f, -0.018807288f, -0.08417542f, -0.08460291f, -0.13410841f, -0.18093391f, -0.19631734f, 0.057301123f, -0.056354206f, -0.06768044f, 0.04761245f, -0.0190536f, -0.06868081f, 0.052673973f, -0.10633839f, -0.07810036f, -0.13798723f, -0.24852774f, -0.14181434f, 0.09824307f, 0.022844616f, -0.028380517f, 0.14297704f, 0.21096404f, 0.089676216f, -0.18634446f, -0.19632609f, -0.14243697f, 0.038136903f, 0.075067386f, -0.0069999797f, 0.09722832f, 0.13640445f, 0.06743119f, 0.0051203626f, -0.11642034f, -0.10489936f, -0.060095884f, -0.031396244f, -0.09934338f, 0.08590775f, 0.07642316f, -0.024737567f, 0.042539135f, 0.049791194f, 0.0031739564f, 0.0058619855f, 0.03130102f, 0.016047334f, -0.02665226f, 0.016010653f, 0.007974732f, 0.060910124f, 0.076214f, 0.059224945f, 0.060329974f, 0.092434354f, 0.074051365f, -0.033280537f, 0.023311922f, 0.058589987f, -0.032575566f, -0.009323457f, 0.013640399f, -0.091236725f, -0.048257835f, -0.028310312f, -0.07911308f, -0.06784717f, -0.04166577f, 0.0041572233f, 0.0023145902f, -0.010847232f, -0.005907807f, -0.030894954f, -0.019646592f, -0.00044186745f, -0.010739498f, -0.016569944f, 0.023570107f, 0.020890119f, 0.019437317f, -0.02249607f, 0.02334284f, 0.029683871f, -0.009359756f, -0.007686101f, 0.018920874f, 0.0015051332f, -0.019869294f, 0.021435864f, -0.0127882995f, -0.013739709f, 0.0087631475f, 0.003936128f, 0.01597672f, -0.002827668f, -0.02808653f, 0.002851045f, -0.006772083f, -0.037968393f, -0.04166951f, -0.032392584f, -0.046272147f, -0.05240324f, -0.041896068f, -0.0004948246f, -0.0021789107f, -0.0018645467f, -0.032838758f, -0.030798491f, -0.017109241f, -0.045722928f, -0.06446988f, -0.025802908f, 0.06516468f, 0.09195885f, 0.08288816f, 0.010311022f, 0.08020159f, 0.08149345f, -0.057171676f, 0.013244947f, 0.019533534f, 0.019622339f, 0.03534413f, -0.014336124f, 0.040231396f, 0.041709762f, 0.029843882f, -0.009908329f, 0.028608453f, 0.03161734f, 0.01935873f, -0.033275094f, -0.02583423f, 0.014170603f, -0.0353155f, -0.031129602f, 0.044201564f, -0.023941603f, -0.043871537f, -0.022034027f, -0.048987225f, 0.025191477f, -0.02479703f, -0.03201428f, -0.0057363478f, 1.3286028e-05f, -0.05773215f, 0.0010211216f, -0.039277807f, -0.034658745f, -0.03513643f, -0.051691674f, -0.043074675f, -0.03633859f, -0.06455077f, -0.05326915f, -0.054044213f, 0.07332068f, 0.08461299f, 0.05425628f, 0.015671154f, 0.07108573f, 0.06541749f, -0.012517891f, 0.0041072564f, 0.011336395f, 0.032422286f, 0.033737913f, 0.0115303015f, 0.018666707f, 0.011302851f, 0.010160458f, -0.04927126f, -0.019413982f, 0.0022745028f, -0.039348233f, -0.06901253f, -0.04161271f, -0.057561707f, -0.058145605f, -0.047394615f, -0.062434733f, -0.06992622f, -0.046725612f, 0.024292845f, 0.055992804f, 0.051553667f, 0.007017131f, -0.009453489f, 0.023856986f, -0.008531717f, 0.00711653f, -0.012454719f, 0.04520376f, 0.051208265f, 0.09756708f, 0.032533184f, 0.06452918f, 0.050245736f, 0.060796175f, -0.0017057229f, -0.032767054f, 0.0010098094f, 0.030280532f, -0.0071224323f, 0.080540396f, 0.050619658f, 0.064314365f, 0.08757555f, 0.08998067f, 0.06224075f, 0.025815161f, -0.039787468f, -0.0028031857f, 0.014306028f, 0.1317842f, 0.06180106f, 0.005844317f, 0.0078797825f, 0.04130575f, -0.016162409f, -0.039466437f, -0.097213216f, 0.07113229f, 0.010512533f, -0.094243355f, 0.09187617f, 0.0543952f, -0.0026920103f, 0.018268637f, 0.011860534f, -0.013309175f, 0.07362853f, 0.13339062f, 0.088314354f, 0.11085475f, 0.057951722f, 0.10236997f, 0.042451486f, 0.060497135f, 0.039362982f, 0.06293402f, 0.0379494f, 0.011883398f, 0.04542988f, 0.028867662f, 0.0387267f, -0.01222258f, 0.0037037944f, 0.006269834f, 0.026516668f, 0.033365242f, 0.02031543f, 0.019028427f, 0.04833683f, 0.024127873f, 0.06357879f, 0.08373602f, 0.15295511f, 0.026898947f, 0.04428103f, 0.019590724f, 0.037314173f, -0.043376837f, -0.060304314f, 0.015557977f, 0.02414393f, 0.028603148f, 0.028471341f, 0.057720035f, 0.035048064f, -0.05761279f, -0.03965411f, -0.05261159f, 0.053092066f, 0.011567431f, -0.008595857f, 0.07370258f, 0.15398668f, 0.103096f, 0.06520837f, 0.062096197f, 0.104582645f, 0.048672587f, 0.025665415f, 0.0019548708f, 0.11012467f, 0.11822473f, 0.088453256f, 0.08047899f, 0.13114056f, 0.13887131f, 0.009072441f, 0.0060423906f, -0.0315559f, 0.086359225f, 0.1408678f, 0.052142628f, 0.13102898f, 0.18518943f, 0.10231054f, 0.022931123f, 0.098195694f, 0.1252835f, 0.026339192f, 0.0543996f, 0.05251012f, 0.019316835f, 0.00028399617f, -0.020306058f, 0.005990177f, 0.022027789f, 0.027005013f, -0.013480629f, 0.034556057f, 0.014890174f, -0.032172356f, -0.046051808f, -0.013147603f, -0.07138005f, 0.0017971245f, -0.0026273746f, -0.033563778f, -0.012010244f, 0.010379702f, -0.039497703f, 0.020332132f, -0.11045477};
float conv1_bias[32] = {-0.8984575f, 0.12183002f, -1.2174866f, 0.15396571f, 0.5613631f, 0.39191365f, 1.5804975f, 0.92713225f, -0.28752735f, -1.2465117f, 0.54117906f, 0.45883402f, -0.9297666f, 0.9465098f, -2.0196316f, 1.9819049f, 0.03240406f, 0.7440181f, 1.6237522f, -2.151311f, 1.003879f, -0.7344588f, -0.8972895f, -0.14268021f, -0.28659603f, 0.6522633f, 0.69248044f, -2.569141f, 1.0389522f, 0.6716339f, 0.31258696f, -2.8816516};

float conv2_weight[32*32*3*3] = {-0.027050192f, -0.017725047f, -0.006851328f, -0.020700077f, -0.0037872873f, -0.011506191f, -0.018590478f, -0.009452225f, -0.029281627f, 0.05290905f, 0.01166422f, 0.05537632f, 0.009948438f, 0.008186054f, 0.015557705f, 0.018378869f, 0.03167071f, 0.0017401287f, -0.0007858689f, -0.00575824f, -0.0065817237f, 0.0028112784f, -0.020406732f, -0.00835715f, -0.004253875f, -0.003077982f, -0.0074679004f, 0.01752797f, 0.015340114f, -0.0075743534f, -0.003682821f, 0.013794054f, 0.0060446193f, 0.013539095f, 0.0040081707f, -0.010908588f, -0.00079227285f, 0.0020387575f, -0.009674571f, -0.0028220608f, 0.0047964794f, -0.0027470302f, -0.019039772f, 0.0031588695f, -0.0060399403f, 0.014505548f, 0.017389594f, -0.008206185f, -0.033258256f, -0.005993521f, -0.011771646f, -0.0066443505f, -0.018936053f, -0.02678795f, -0.0015331382f, -0.017511612f, -0.0067842025f, 0.0050638113f, -0.036415875f, -0.011515878f, -0.018644972f, -0.010256759f, -0.021024473f, -0.008490279f, -0.0002227534f, -0.0073943315f, 0.009670207f, 0.0076289866f, -0.0019076256f, -0.01761692f, -0.01152281f, 0.00253728f, -0.008980309f, -0.014178534f, -0.005024206f, 0.0057767546f, -0.0019527839f, 0.009842334f, 0.005836024f, -0.0069425325f, -0.0042826426f, -0.049064547f, -0.019946624f, -0.03707982f, -0.030329097f, -0.03683071f, -0.0409065f, -0.025409969f, -0.041079935f, -0.017233685f, 0.0065203677f, 0.01878582f, 0.014872525f, 0.018578755f, 0.041122045f, 0.031411726f, 0.023421982f, 0.049234785f, 0.019919235f, 0.014901445f, -0.0029940198f, -0.0029258577f, 0.029110555f, 0.0041460367f, 0.008717467f, 0.023216179f, 0.034386918f, 0.016640201f, 0.021494957f, 0.014782286f, 0.0043718214f, 0.011633891f, -0.012688495f, -0.0108691845f, 0.009031582f, 0.0023954154f, 0.0060502207f, -0.010249458f, -0.01737232f, -0.0066254116f, 0.007830046f, 0.0008348276f, -0.0054253424f, -0.009955126f, 0.0004911968f, 0.00035108914f, 0.00072816736f, 0.0012947539f, -0.012370137f, -0.0061672353f, -0.020166202f, -0.009071584f, 0.016158316f, 0.011221343f, 0.011473228f, -0.01959326f, -0.008063956f, -0.021450259f, -0.004468727f, -0.021590367f, -0.008278661f, -0.012220947f, -0.016888393f, -0.020233791f, 0.04606553f, 0.050170347f, 0.061570365f, 0.006826035f, 0.014648705f, 2.4974279e-05f, 0.0130019635f, -0.0019350549f, 0.016821247f, 0.008983294f, 0.0016926051f, 0.0030824768f, 0.016176505f, 0.031285543f, 0.022820724f, 0.008195401f, 0.012582815f, 0.006211109f, -0.0030902762f, 0.0047071087f, -0.011782307f, -0.0036741577f, 0.003779913f, -0.009457893f, 0.0074523087f, 0.010392067f, -0.006922658f, 0.017287266f, 0.0035975925f, -0.0037122646f, -0.006269518f, -0.020540137f, -0.03200098f, 0.030434247f, 0.0024788687f, -0.002589671f, 0.0049879528f, -0.0063454662f, 0.00547597f, -0.0024036986f, -0.012690311f, 0.014211666f, 0.011958968f, 0.03975206f, 0.018606048f, 0.016837154f, 0.0012773447f, -0.015139874f, -0.002300143f, -0.015069379f, -0.051349528f, 0.018516177f, 0.0038959482f, -0.021717256f, 0.0019559604f, 0.011387902f, -0.00748776f, -0.0063730865f, -0.01154633f, -0.021385862f, 0.0383071f, 0.009246511f, 0.000898424f, 0.022888822f, 0.0028416482f, 0.0005382412f, 0.028449945f, -0.016622305f, 0.008455251f, 0.020424f, 0.013521046f, 0.0046670483f, 0.006698618f, 0.014181458f, -0.0062627783f, -0.0036390342f, 0.008234312f, -0.0072449525f, -0.009479482f, -0.0017848269f, -0.02007854f, 0.067764364f, 0.070538074f, 0.08126589f, 0.010582196f, 0.033476528f, 0.017475564f, -0.017052602f, 0.01371271f, 0.04789167f, -0.005220298f, 0.0016032545f, -0.011391606f, -0.0025578947f, 0.010439769f, -0.0011327921f, -0.015747698f, 0.0145903425f, -0.021771085f, 0.0064699943f, -0.0025544437f, -0.026442157f, 0.008153557f, -0.01308076f, -0.013910105f, 0.007486882f, -0.005742524f, -0.008729483f, 0.012378178f, 0.025393542f, -0.00012605672f, 0.00478001f, 0.0013706061f, 0.0069234725f, 0.013393227f, 0.02692855f, 0.020927737f, -0.04393537f, -0.02269572f, -0.021847991f, 0.018124463f, 0.038815565f, 0.046943113f, 0.052237943f, 0.061002817f, 0.018007647f, 0.03788917f, 0.031922292f, 0.031425737f, 0.0031465923f, 0.012386785f, 0.01047641f, 0.018939205f, 0.04102377f, 0.013187324f, -0.021038774f, -0.023826512f, -0.012116372f, -0.0021463684f, -0.019530965f, -0.0045958655f, -0.01670049f, -0.017524563f, -0.01669557f, -0.004041527f, -0.0062255766f, 0.0010519458f, 0.015056448f, 0.008463439f, 0.013327585f, 0.027669916f, 0.0071702255f, -0.0003265169f, 0.0024025582f, -0.047794275f, 0.009751662f, -0.013903162f, -0.04196744f, -0.038273245f, -0.005357461f, 0.024203632f, 0.019768022f, -0.017407652f, -0.015844498f, -0.015714895f, -0.016667653f, -0.006382362f, -0.014834052f, 0.015832515f, 0.028658772f, -0.004213039f, -0.029841255f, -0.019963918f, -0.048154633f, 0.012948784f, 0.005644436f, -0.022595275f, 0.06602119f, 0.03585661f, -0.0079354355f, 0.01173521f, 0.010193819f, 0.0112915635f, 0.0054467437f, -0.00034655564f, 0.020291544f, -0.022115704f, -0.030971646f, -0.0010883831f, -0.020218903f, -0.0127813835f, -0.030825278f, -0.008294217f, -0.023635041f, -0.032576006f, 0.08096592f, 0.044564724f, 0.02699716f, -0.020960275f, -0.033483997f, -0.030658197f, 0.010970608f, -0.024901688f, -0.016421998f, 0.035792124f, 0.03961994f, 0.050265696f, 0.03345416f, 0.03140859f, 0.02265159f, -0.0036999017f, 0.013041067f, 0.0053891526f, -0.011499291f, -0.043073844f, -0.024090324f, 0.026138982f, -0.0050840336f, 0.013583278f, 0.015858693f, 0.03660747f, 0.03602021f, 0.005923567f, -0.042731978f, -0.018777993f, -0.041774083f, 0.012846776f, -0.018925482f, -0.018709252f, -0.0030621865f, -0.043387502f, -0.00022717963f, -0.051503256f, -0.048587266f, -0.0012979049f, 0.00030247206f, -0.025338193f, 0.028726831f, 0.020286096f, -0.005422213f, 0.0019618259f, 0.006938177f, -0.0070481068f, -0.025807746f, -0.037278708f, -0.037244968f, 0.08018873f, 0.0042762975f, 0.019848103f, 0.026091367f, 0.036708478f, 0.011614563f, -0.006324549f, -0.024510322f, -0.014670049f, -0.011987484f, -0.0048665414f, -0.02152021f, -0.032326426f, -0.02085891f, -0.00044483528f, 0.023965761f, 0.0065025203f, 0.017544582f, 0.006405955f, -0.001166404f, 0.011549874f, -0.0142876385f, -0.033810996f, -0.0033042252f, -0.028265629f, -0.02018761f, -0.01971586f, 0.005712035f, 0.0059552826f, -0.00031391426f, -0.0037811408f, -0.005547538f, 0.0015425849f, -0.016330896f, -0.021129463f, -0.04383271f, 0.025325794f, -0.008388852f, -0.04208743f, 0.087463796f, 0.07817928f, 0.0270659f, 0.00045641465f, 0.00454173f, -0.027422696f, -0.0231088f, -0.0194866f, -0.049670264f, -0.024965817f, -0.020865163f, -0.016797032f, 0.018203989f, 0.0023086967f, 0.013865873f, 0.0039993273f, 0.014874414f, 0.041678336f, -0.019186283f, -0.019365607f, -0.016008312f, -0.018593919f, -0.030483045f, -0.030280685f, 0.019546932f, 0.0041569155f, -0.0100196805f, 0.04280446f, 0.035443958f, 0.0055949697f, -0.015904345f, -0.039179005f, -0.020892035f, -0.023738086f, -0.004105606f, -0.025271533f, -0.055093393f, -0.03076933f, -0.023336869f, -0.0010821347f, -0.029783322f, -0.0078554405f, 0.030687783f, 0.0036129218f, 0.061202805f, -0.005057146f, -0.018929584f, 0.018067453f, -0.010905156f, -0.022302618f, -0.016622722f, 0.021631423f, -0.015114413f, -0.013416938f, 0.013612444f, 0.0062768096f, 0.0043861433f, -0.03368014f, -0.039953265f, -0.038876344f, -0.0058330563f, -0.002994489f, -0.022894543f, 0.0013215301f, 0.00611929f, -0.029061422f, -0.039169345f, -0.0339005f, -0.03405584f, 0.050909866f, -0.016685586f, -0.002957391f, 0.039075173f, 0.023767285f, 0.026476461f, -0.046839274f, -0.018974165f, -0.020132085f, -0.0128779225f, -0.022479711f, -0.025983023f, 0.040625792f, 0.008137259f, 0.004226209f, 0.04092827f, 0.057365723f, 0.058731366f, -0.010903303f, -0.027180593f, -0.03159306f, 0.05441403f, 0.06319959f, 0.05962287f, -0.021863913f, -0.018281322f, -0.027079133f, 0.0432271f, 0.046478424f, -0.014463496f, 0.07615295f, 0.050683577f, 0.039254867f, -0.016149392f, -0.010536567f, -0.016900102f, -0.0020200142f, 0.013927865f, -0.0029641401f, -0.0009849946f, -0.0043799006f, -0.0020121657f, -0.023865057f, -0.018364206f, -0.006515468f, 0.029776376f, -0.010924012f, -0.0031341172f, 0.058415096f, 0.041671075f, 0.02855565f, -0.010848569f, 0.006172903f, 0.005249004f, 0.056791883f, 0.12687913f, 0.09700027f, 0.0053661205f, 0.010654711f, 0.03200086f, 0.019815572f, 0.005301547f, 0.017222205f, 0.005453902f, -0.012558684f, 0.011136376f, 0.012607069f, -0.008312005f, 0.009532529f, 0.024939468f, 0.011271378f, 0.037503675f, 0.01532451f, 0.000660741f, 0.009800403f, 0.024123518f, -0.036488805f, -0.019993227f, -0.0106215f, -0.0080164485f, -0.011589646f, 0.0056624557f, 0.0063862973f, 0.020240132f, -0.0045905537f, 0.009479692f, 0.0007340352f, 0.005081018f, 0.007873933f, 0.03939672f, -0.005925812f, -0.0040946277f, 0.026212038f, -0.0017522593f, 0.01815512f, 0.035190243f, -0.017359879f, -0.016515605f, -0.014171627f, -0.013877724f, -0.011285828f, -0.005799114f, -0.027106458f, -0.0060199876f, -0.008922993f, -0.009841131f, -0.012060787f, -0.016439868f, -0.016261227f, -0.008865384f, -0.0011002042f, -0.0154394545f, -0.015910579f, -0.0105762305f, 0.0052037085f, -0.0034780279f, -0.0026409647f, 0.01875976f, 0.0025231314f, 0.006753949f, 0.00765992f, 0.005913961f, 0.009018114f, -0.010373359f, -0.004079301f, -0.017152373f, -0.02005285f, -0.015791746f, -0.012916688f, -0.019995838f, -0.01966726f, -0.017637692f, -0.01338626f, -0.016395826f, -0.0154628595f, 0.005810191f, -0.015754638f, -0.014657498f, 0.0060028112f, -0.008220889f, -0.0056443834f, 0.007354991f, 0.0032700566f, -0.0057777977f, -0.0024233093f, 0.0030908603f, 0.0015492468f, -0.0045307423f, -0.00014193646f, 0.0015180625f, 0.004445527f, 0.00035038227f, -0.0070089945f, 0.02998711f, 0.027106142f, 0.023480631f, 0.016455134f, 0.017135583f, -0.0019274242f, -0.011830813f, -0.01734553f, 0.0019685698f, -0.0048191207f, 0.0053587197f, 0.0033287515f, -0.0043692696f, 0.013829764f, 0.015848428f, -0.009834928f, -0.016752493f, -0.015155516f, -0.0077659227f, -0.0055581094f, -0.006535188f, 0.016113589f, -0.0054711467f, 0.0008227111f, -0.027986376f, -0.025164304f, -0.013531142f, -0.013952191f, -0.0058755716f, -0.0028455479f, 0.00035411146f, -0.014387109f, -0.0029419812f, -0.01226721f, -0.004234284f, 0.0031722276f, -0.026073419f, -0.025945326f, -0.013712652f, -0.02505757f, -0.01700428f, 0.0038835169f, -0.0023137452f, -0.004512147f, -0.013602959f, 0.0050344686f, -0.0045576477f, -0.009921596f, -0.00299973f, 0.0012278775f, 0.0016959478f, -0.008665616f, -0.0074214768f, -0.017288238f, -0.0030029532f, -0.015120955f, -0.020228103f, -0.0050079785f, -0.01817236f, -0.016200833f, -0.018615004f, -0.008797843f, -0.011897443f, -0.020999536f, -0.004861705f, -0.007438909f, -0.006742672f, -0.0012114703f, -0.000790495f, 0.0023664583f, 0.005851665f, 0.030790588f, -0.0139790755f, 0.009310227f, 0.019064572f, -0.00315278f, 0.008246131f, 0.024107832f, -6.5297514e-05f, -0.0064744786f, -0.0067357104f, 0.003157386f, 0.0009519284f, 0.005601186f, 0.013697534f, 0.013560174f, 0.001683864f, -0.006956386f, -0.027233653f, -0.0225636f, 0.011875082f, -0.011750558f, -0.0041702385f, -0.014810024f, -0.017087191f, -0.008394839f, 0.007949486f, -0.006065859f, 0.010300181f, -0.018429771f, -0.014843645f, 0.00077882083f, -0.01491363f, -0.010912171f, 0.0038990667f, -0.014403614f, -0.005716014f, 0.018533735f, 0.0013266914f, 0.013278811f, 0.02274408f, 0.016213931f, 0.027134636f, 0.028927628f, -0.020841865f, -0.023153523f, -0.009512686f, -0.018388417f, -0.027434302f, -0.02185015f, -0.022463625f, -0.019490805f, -0.00670897f, -0.015493942f, -0.01867081f, -0.016209606f, -0.023981972f, -0.023910368f, -0.018355764f, -0.03149102f, -0.018074699f, -0.0012553327f, -0.014903518f, -0.014099618f, -0.0021970859f, -0.019077657f, -0.009822895f, 0.0011572745f, -0.01152264f, -0.013166706f, 0.004315959f, -0.017668352f, -0.024958989f, -0.01317532f, -0.02382666f, -0.019559298f, -0.006588384f, -0.026759384f, -0.016982634f, -0.00022143891f, -0.0016834495f, 0.0006238436f, -0.0021272486f, -0.007265856f, -0.003079119f, -0.007905612f, 0.0058305934f, 0.02728338f, 0.027675653f, -0.028777014f, -0.021687595f, -0.014788808f, -0.017496312f, -0.011673807f, -0.0033111866f, -0.004174473f, -0.010020278f, -0.01888006f, -0.0095991455f, -0.030347094f, -0.028133452f, -0.01288146f, -0.026267698f, -0.023563802f, -0.009512111f, -0.024528721f, -0.0074184462f, 0.00041794518f, -0.021803081f, -0.0056057572f, -0.00205266f, -0.00441667f, -0.009858253f, -0.008450894f, 0.012368194f, 0.0112253735f, -0.025859848f, -0.020810151f, -0.027599588f, 0.0059364727f, 0.0084363045f, -0.006025003f, 0.037951067f, 0.029359786f, -0.0071416786f, -0.0048407377f, 0.003082429f, 0.014835923f, 0.0011041004f, 0.0039200815f, 0.008467089f, -0.010284967f, 0.012568167f, 0.0227094f, -0.0051525603f, 0.007058811f, -0.0046814154f, 0.008386388f, 0.012660397f, 0.016080778f, 0.0018722301f, 0.006253674f, 0.0051386f, -0.004316464f, -0.02554666f, -0.031228289f, -0.025774492f, -0.03469436f, -0.025910044f, -0.027845245f, 0.0045122486f, 0.010025009f, -0.006644055f, 0.0073593734f, -0.04647616f, -0.009885716f, 0.010947123f, -0.057049505f, -0.026078755f, -0.039623335f, -0.05444939f, 0.013264999f, 5.446968e-05f, -0.0029772397f, -0.010911291f, -0.020824235f, -0.042935763f, -0.012441689f, -0.016061973f, -0.013196662f, 0.026014587f, 0.007441679f, 0.03984324f, 0.017543487f, -0.01580012f, 0.0023403026f, -0.013884318f, -0.019187417f, 0.00039577868f, -0.0058736885f, -0.0013287077f, 0.0029979274f, 0.0016850354f, -0.006800607f, 0.008468082f, 0.01627422f, 0.029793492f, 0.037346736f, 0.03461893f, 0.036125686f, 0.031491637f, 0.043474082f, 0.026698198f, -6.7712e-05f, -0.008484865f, -0.0033732317f, 0.0005916182f, 0.027508296f, -0.011960135f, -0.014837224f, -0.004768079f, -0.03324616f, -0.046609707f, -0.02759952f, -0.02605615f, -0.014302696f, 0.018368732f, -0.018219493f, 0.01826259f, 0.04406246f, 0.018648738f, 0.048439912f, 0.043161184f, 0.050420433f, 0.06350586f, 0.005415125f, -0.017866287f, -0.013078811f, -0.022353841f, -0.01783734f, 0.003752824f, 0.015199884f, 0.027577695f, 0.036368564f, 0.011861559f, -0.07171371f, 0.0037622529f, -0.009805642f, -0.07893733f, -0.03172081f, -0.0072647673f, -0.01837771f, 0.0075179148f, 0.010309874f, 0.004812347f, 0.0006710101f, 0.00676226f, -0.014777691f, -0.018674104f, 0.0103461575f, 0.0015960935f, -0.03891233f, 0.07231583f, -0.026117427f, 0.018252902f, 0.0010622957f, -0.012172654f, -0.0034286794f, 0.009453245f, -0.017819785f, 0.026611224f, -0.008913827f, 0.004866319f, -0.011595543f, -0.025365528f, -0.02814434f, -0.06704852f, -0.00611553f, -0.020158984f, -0.04085134f, -0.0029023371f, -0.0051137f, -0.008944665f, 0.042357814f, 0.020197583f, 0.036081266f, 0.04064227f, 0.034232542f, 0.048013423f, -0.01358411f, -0.03241453f, -0.02734553f, -0.04795099f, -0.029737856f, -0.037593488f, -0.024302626f, -0.0119381165f, -0.0049681794f, 0.04142138f, -0.014760524f, 0.017037695f, 0.011801947f, 0.0017022548f, 0.014078526f, -0.00020367047f, -0.02689211f, -0.02314355f, 0.0036774918f, 0.010965138f, 0.014995625f, 0.005994568f, 0.03946892f, 0.01444703f, 0.010878276f, -0.0054244236f, -0.05659625f, 0.0060577276f, -0.01845353f, 0.02161529f, 0.029041737f, 5.4111955e-05f, 0.022692803f, 0.03203003f, 0.011691359f, 0.020853454f, 0.01079743f, 0.0070791473f, 0.037089374f, 0.026442796f, 0.0120323235f, 0.014689491f, -4.6297628e-05f, -0.012666667f, -0.002257455f, -0.010923621f, 0.023508368f, 0.02966985f, -0.026587313f, -0.02096145f, -0.034784485f, -0.0069368943f, -0.015503895f, -0.0178449f, 0.034249485f, 0.0423566f, -0.013551338f, -0.008502827f, -0.022013918f, -0.042697445f, -0.010106273f, -0.024878973f, -0.02223905f, 0.025947273f, 0.015678369f, 0.014507293f, 0.0020547295f, 0.009417346f, -0.010059395f, -0.011250774f, -0.02752458f, -0.015612474f, 0.014911238f, 0.013357611f, 0.012133238f, -0.008444161f, -0.026008582f, -0.025960915f, -0.009183701f, -0.007255288f, -0.0070912116f, 0.035331525f, -0.00087842f, -0.0069829184f, -0.013737117f, -0.022052335f, -0.027331214f, -0.0037017388f, -0.030024573f, 0.0024737346f, 0.011437855f, -0.00093817996f, 0.026986329f, 0.00029341012f, -0.016961303f, -0.0015711046f, 0.00021258448f, -0.0070695733f, -0.013446551f, 0.016050352f, 0.045104478f, 0.038787756f, 0.06257033f, 0.059165888f, 0.026641736f, -0.0017675702f, -0.018414484f, -0.058437347f, 0.025100445f, -0.0016095667f, 0.021633672f, -0.023553438f, -0.015381351f, 0.0064567253f, 0.00020620368f, 0.0040809494f, 0.023056135f, -0.00032882192f, -0.03129152f, -0.017041473f, -0.039849464f, -0.064643234f, -0.06320706f, -0.031078089f, -0.0237642f, -0.0025667818f, 0.08879498f, 0.054957177f, 0.103375144f, 0.08056067f, 0.0044208635f, 0.009851622f, 0.0030938012f, -0.018059937f, 0.009260644f, 0.0075081023f, 0.036892034f, 0.03954021f, -0.017183574f, -0.022243826f, -0.0032808846f, -0.020239169f, 0.0021395325f, -0.0027093885f, 0.004521147f, 0.015658187f, -0.0018338556f, 0.0016593635f, 0.004512028f, -0.01656489f, -0.009525486f, -0.016348328f, -0.031200381f, -0.04741647f, -0.049211215f, -0.053761728f, -0.05215219f, -0.047508616f, -0.037532136f, -0.017117195f, 0.027763184f, 0.03288472f, -0.011760321f, -0.006248081f, -0.0008403687f, -0.00599124f, -0.015825834f, -0.009986361f, -0.009978107f, -0.013391776f, -0.012084281f, 0.024089238f, 0.025704501f, 0.017907921f, 0.018131893f, 0.029298024f, 0.01114104f, -0.026115615f, 0.008027995f, -0.00899673f, -0.011544971f, 0.0017535378f, -0.007222553f, -0.0040164124f, 0.010391812f, 0.0039078863f, -0.015088176f, -0.006580725f, -0.0076068225f, -0.0099849515f, -0.0026625162f, -0.010266661f, 0.0073783016f, -0.0016734386f, -0.005596226f, -0.0124089485f, -0.0019371005f, 0.0055331765f, 0.0134505695f, 0.002283973f, -0.011580654f, 0.0038541742f, 0.0068094055f, -0.011186324f, 0.019208288f, -0.007877244f, -0.0074329735f, -0.03582665f, -0.02549497f, -0.020931918f, -0.02178156f, -0.0079083275f, -0.019345084f, -0.023831988f, -0.008997561f, -0.018034838f, -0.0041767433f, 0.0019145937f, 0.014365182f, 0.009100608f, 0.022825846f, 0.02581187f, -0.018144812f, 0.007356287f, 0.017556256f, 0.012515769f, -0.0074417903f, 0.0069080335f, 0.01866899f, 0.012469602f, 0.0087077385f, 0.027236883f, 0.012223275f, -0.014068769f, 0.0048572817f, -0.0056816647f, -0.011330043f, 0.0074943155f, -0.0055116606f, -0.015102552f, 0.018213285f, -8.948813e-05f, -0.009784685f, -0.01864595f, 0.00022163126f, -0.0036486378f, -0.026669126f, -0.016118672f, -0.011310222f, -0.025576852f, -0.0049025277f, 0.00035706518f, -0.005793182f, 0.009235707f, 0.010866362f, 0.006286311f, 0.011143234f, 0.010303651f, 0.001187458f, 0.017031321f, 0.011867921f, 0.027445119f, 0.030004319f, -0.0027727534f, -0.013055723f, 0.006081666f, -0.011876662f, -0.0015198259f, 0.025887745f, 0.026682755f, 0.0026263508f, 0.012018898f, 0.01499813f, -0.014783168f, -0.0026706178f, -0.0037384226f, -0.015751487f, -0.010003089f, -0.0053848107f, 0.003134955f, -0.003765347f, -0.014023912f, 0.013782035f, 0.010718261f, -0.0024325564f, 0.018634351f, 0.013215859f, -0.0047844932f, -0.013156341f, 0.002035113f, -0.0049566054f, -0.03678505f, -0.027685925f, -0.022920435f, -0.036707323f, -0.027549205f, -0.018467056f, -0.014121673f, -0.00045805323f, -0.029050175f, -0.013300761f, 0.01454302f, -0.016837386f, -0.024371289f, -0.00958541f, -0.010206427f, 0.022487188f, 0.049941182f, 0.042710807f, 0.020454206f, 0.04614022f, 0.027118448f, 0.004313846f, 0.017260427f, 0.015295666f, 0.011449811f, 0.01557597f, 0.006152576f, 0.02843488f, 0.034694336f, 0.019524282f, 0.031536717f, 0.035988215f, 0.014602514f, -0.008844421f, -0.010059209f, -0.015276631f, -0.007355689f, 0.0042046793f, 0.003133471f, -0.011141964f, -0.004001078f, -0.020192234f, 0.0068931016f, 0.025478465f, 0.012952578f, -0.018605921f, 0.0067858966f, 0.0044788467f, -0.037543107f, -0.02117159f, -0.017354766f, 0.021174412f, 0.03704254f, 0.011908743f, -0.0010810669f, 0.022177119f, 0.0008488468f, 0.034134258f, 0.061084587f, 0.029539859f, 0.015439441f, 0.0396077f, 0.027269065f, 0.008521081f, 0.019311713f, 0.00949049f, -0.017802643f, -0.009054755f, -0.0017099805f, -0.015487611f, 0.017307691f, 0.004945516f, -0.0311061f, -0.013023134f, -0.0066289376f, -0.014953516f, -0.0064507523f, -0.0089017255f, 0.010024985f, 0.021073755f, 0.013416222f, -0.02470161f, -0.01656108f, -0.0037911215f, -0.011773845f, -0.010317011f, -0.0058656507f, -0.0142848445f, -0.0056582657f, -0.00037992117f, -0.009535771f, 0.012724772f, 0.009853289f, -0.012913996f, -0.01574555f, -0.008652399f, 0.03150753f, 0.037152156f, 0.01285929f, 0.03768814f, 0.053695798f, 0.036757037f, -0.01554746f, 0.0015115808f, -0.003886026f, -0.004695513f, -0.015086221f, -0.013658892f, 0.0043720654f, 0.0109846415f, 0.016738866f, -0.023020392f, -0.0066342284f, -0.014187448f, -0.014072694f, -0.010526174f, 0.0055295937f, -0.02850935f, -0.0264439f, -0.018021233f, -0.025293719f, -0.033940624f, -0.029549176f, 0.0010954111f, 0.01952394f, -0.0002477311f, 0.010470391f, 0.022922482f, -0.0023680783f, 0.00993637f, 0.028880412f, 0.024725188f, 0.014233381f, 0.010448482f, -0.005518691f, -0.017437316f, -0.023527494f, -0.026462652f, 0.03888528f, 0.026241282f, 0.03852933f, 0.017505514f, 0.051930934f, 0.033844147f, 0.0134256845f, 0.040545974f, 0.029774953f, 0.001198842f, 0.030975167f, 0.018305965f, -0.017377406f, -0.021653956f, -0.019494995f, -0.021231042f, -0.03753262f, -0.027067684f, -0.021050097f, -0.02204372f, -0.024250006f, -0.003886173f, -0.005749501f, -0.013847858f, 0.015355266f, 0.0175429f, 0.008479141f, -0.0041310135f, 0.013583224f, -0.002685319f, -0.033317532f, -0.03634806f, -0.0596153f, -0.027305461f, -0.048109125f, -0.09417508f, 0.0012119696f, -0.013276153f, -0.058758467f, -0.00629686f, -0.011205415f, -0.0102144545f, 0.011316004f, -0.011943314f, -0.0059436094f, 0.0014693048f, -0.0062323157f, 0.034890056f, -0.0006707406f, -0.013461228f, -0.0085025625f, 0.02279186f, 0.0029813477f, 0.007461808f, -0.0029178588f, 0.018153066f, 0.03165306f, 0.009686535f, 0.021544268f, 0.018437391f, 0.0066778f, 0.014731031f, 0.0072517577f, -0.008543997f, -2.8669892e-05f, -0.010605562f, 0.018556096f, 0.009929737f, 0.014591589f, -0.0100379605f, -0.023737818f, -0.011620294f, 0.0140633965f, -0.01476259f, 0.025864493f, 0.0025299327f, 0.001240495f, -0.010969879f, 0.005762592f, -0.014291915f, 0.0019801774f, 0.029836139f, 0.0018058036f, 0.031941213f, 0.024013046f, 0.022434328f, 0.015812267f, 0.0014301183f, 0.010388982f, -0.0014228342f, 0.001096873f, -0.016597085f, -0.016999237f, 0.004797379f, 0.010424402f, -0.0043977695f, 0.0039644814f, 0.031691987f, 0.01041812f, 0.0123284785f, 0.031632833f, -0.00027820354f, 0.004112341f, -0.01161471f, -0.0083915f, 0.014427735f, -0.012891942f, -0.022724502f, 0.020345224f, -0.0067134965f, -0.0059618107f, -0.008301339f, -0.017314836f, -0.009811818f, -0.006352816f, -0.0067780036f, -0.005395284f, 0.0026789843f, 0.008705405f, 0.0029453123f, -0.0024124708f, -0.033960618f, -0.019216917f, 0.015113915f, 0.0044891876f, 0.0012594799f, -0.0054208855f, 0.024469873f, 0.04373855f, -0.013107828f, -0.0329158f, -0.02357242f, -0.025500787f, -0.024301691f, -0.034910746f, 0.027220072f, -0.0036763633f, -0.0053629777f, 0.012447075f, 0.015474835f, -0.00058578525f, -0.006393076f, 0.00016563713f, 0.0024899994f, -0.0054824515f, -0.00274941f, -0.0070095854f, -0.004072489f, -0.005328677f, -0.0039521316f, 0.020687303f, 0.004283198f, -0.0034096218f, 0.020974668f, 0.0057876455f, 0.008551605f, -0.0025250611f, -0.023459496f, -0.026355406f, 0.021159537f, -0.007777237f, -0.010576453f, -0.00081012247f, 0.015637679f, 0.029586295f, -0.033026073f, -0.035912126f, -0.010083404f, -0.054814376f, -0.015962536f, -0.019191397f, -0.0062465705f, -0.018973568f, -0.00339936f, 0.016011674f, 0.015458558f, 0.0013802057f, 0.008841255f, 0.000875951f, -0.005658899f, 0.010781136f, -0.0018249727f, -0.00928789f, 0.00038272757f, -0.015997054f, -0.008919064f, 0.009213657f, -0.018390832f, -0.0021253617f, -0.0011221536f, 0.0015394386f, 0.02415984f, -0.030549925f, -0.037824087f, -0.009450728f, -0.026049193f, -0.024783257f, -0.035751164f, 0.027634118f, -0.00838021f, 0.009492401f, -0.035331577f, -0.047669705f, -0.038069174f, -0.015380307f, -0.030734163f, -0.04748181f, 0.01850082f, -0.013565093f, -0.028556477f, -0.009595673f, -0.008913042f, -0.011505793f, -0.0059575797f, -0.02098837f, -0.008489884f, 0.0034844321f, -6.491857e-05f, 0.003840372f, 0.0054103313f, -0.009293657f, -0.01932714f, 0.012099872f, -0.008100332f, -0.008222659f, 0.014116831f, 0.0036658363f, 0.030247744f, -0.010409594f, -0.009462429f, -0.025609257f, -0.0019230945f, -0.010228165f, 0.0016283055f, 0.013875301f, 0.010068735f, 0.016754702f, -0.006966456f, -0.0081211645f, -0.01157537f, 0.01017503f, -0.0027951335f, -0.00037611873f, -0.0021215307f, -0.004595644f, 0.025259508f, 0.0030668452f, 2.6534213e-05f, 0.0036654668f, -0.020233069f, -0.0053858017f, -0.01833547f, -0.0104281865f, -0.030128555f, -0.014715881f, -0.022957858f, -0.027929366f, -0.0033685472f, 0.010762678f, 0.0057865516f, 0.027909553f, -0.011283188f, -0.006111433f, 0.0429523f, 0.0032876749f, -0.01573474f, 0.003049547f, 0.023195984f, 7.25748e-05f, 0.0009216643f, 0.030996528f, 0.0033852682f, 0.009960826f, -0.009318373f, -0.028317653f, -0.009009899f, -0.0014289317f, -0.022316989f, -0.01189747f, 0.0013831109f, 0.0061540618f, 0.016511701f, -0.057345513f, -0.029171944f, -0.01459616f, -0.0003099426f, -0.030634107f, -0.007936278f, 0.02383614f, 0.03699359f, 0.0102360835f, -0.021669397f, -0.018328182f, -0.015632883f, -0.020927487f, -0.016233105f, -0.035233743f, 0.0040231794f, -0.010310956f, -0.019797591f, -0.00014266887f, 0.004933172f, -0.009038765f, 0.0012817353f, 0.01271701f, 0.0010652837f, 0.004518746f, 0.014005593f, -0.006499463f, 0.0056096935f, 0.011831003f, 0.006960886f, 0.025338823f, 0.060790118f, 0.045566324f, 0.029036367f, 0.023661893f, 0.027999816f, -0.009088711f, -0.0075312033f, -0.02030074f, 0.01626147f, -0.018578073f, -0.0012605055f, 0.016480519f, 0.017746428f, -0.02231923f, 0.011692987f, 0.004397346f, 0.010355398f, 0.012205285f, 0.020903872f, 0.023838054f, 0.004971503f, -0.008529527f, 0.016358512f, 0.015298031f, -0.013392803f, -0.029100934f, 0.019369218f, 0.04029538f, 0.0042373007f, 0.014908755f, -0.0036073118f, 0.009050405f, -0.004216399f, 0.0056417366f, 0.0036603652f, 0.012925546f, 0.014407131f, 0.011734169f, 0.014536494f, 0.004143033f, 0.016697105f, 0.03495174f, 0.0080639655f, 0.004489998f, 0.035056766f, 0.02770189f, 0.015266336f, 0.08251959f, 0.019495748f, 0.04277221f, 0.005439649f, 0.014023323f, 0.020012148f, 0.012464362f, 0.04057235f, 0.02913019f, 0.00895479f, 0.0038448966f, 0.010313441f, -0.016704008f, 0.001143129f, -8.464497e-05f, -0.015689008f, -0.011765237f, 0.0048082434f, 0.013238287f, 0.0064166565f, 0.021584284f, -0.009504248f, 0.00568454f, 0.007404877f, -0.0022287532f, 0.013813936f, 0.013411677f, 0.012585072f, 0.0074416995f, 0.037703957f, 0.024919322f, 0.0018505038f, -0.012300261f, 0.019239876f, 0.040051192f, 0.031478886f, 0.03285262f, 0.015519197f, 0.02404102f, 0.00011006128f, -0.010089661f, -0.00783732f, -0.012776305f, -0.010195219f, -0.010447519f, -0.010294963f, -0.019963114f, -0.0053695696f, 0.017820615f, 0.012928366f, -0.007846545f, 0.013144353f, 0.024867862f, 0.0053514023f, 0.005919651f, -0.018307447f, -0.01565149f, 0.006526148f, 0.00022676475f, -0.0023464202f, -0.0069240155f, -0.005559698f, 0.0005907648f, -0.0073832334f, -0.016366282f, -0.026086047f, -0.006987366f, 0.0060973098f, 0.009163601f, -0.00053312234f, -0.00014432092f, -0.009698396f, -0.00088979385f, -0.0016904415f, 0.020791465f, -0.0019323286f, 0.015149206f, -0.0045863637f, 0.014117823f, 0.027199863f, 0.025393618f, -0.00033488232f, 0.008902777f, 0.006849319f, 0.01558271f, 0.017083097f, -0.009123904f, 0.015497597f, 0.049050104f, 0.0030332718f, -0.008239648f, -0.009680596f, -0.033872735f, 0.0075913523f, 0.0003388401f, 0.0008724978f, -0.015109049f, -0.018331265f, -0.031541403f, -0.014497434f, -0.00012823853f, -0.0051898244f, -0.009815655f, -0.0006534501f, -0.009387313f, 0.0017953254f, 